10000 32
5333 -1.5370337 -1.1629838 1.1158046 -1.6278045 -0.105606616 0.78625274 -0.60179734 -0.33799478 -0.2461781 4.655361 0.27652165 -1.240897 0.15320705 0.17514756 0.44743416 0.14660434 -0.22642528 1.0829563 1.8937584 -0.7195623 0.53708917 -2.5635564 0.46212915 -0.91795313 1.8065708 2.1177943 -3.7327814 -0.90079737 -0.49602792 -2.7285013 1.2132074 -1.6063132
5907 -0.2918464 -3.081763 2.1372886 1.7373062 0.7787325 0.12848842 3.556469 0.32846293 0.28620243 2.0687783 0.842879 -0.40527436 0.25700086 -0.38403055 0.14069973 -1.669575 -1.9544488 -1.1419581 3.7957926 0.63420486 1.040311 -1.8110497 -0.81197834 0.3157642 -1.2617171 2.1034882 -0.6416717 1.2200512 1.3166822 1.6922342 2.3378153 -1.9936582
7451 2.653047 -1.8113866 2.1005325 -2.553624 1.4053838 -1.7456939 -1.2783991 -1.0796893 -1.2617748 2.7534516 -0.35293558 -0.65349483 -0.39050174 -0.5631361 0.7899434 -2.8373797 0.12268934 -1.546041 1.1938205 1.8906244 -2.3618827 0.61678386 0.9680828 0.4078451 1.2540962 1.5877478 1.067749 -0.21368939 2.6895516 -1.8646531 -0.18383768 3.7595196
7715 -1.5377514 -2.3842013 0.641896 1.7679715 0.48583406 -1.25268 -0.2777152 -1.0209501 -0.8443171 0.542168 0.39846238 1.9129587 0.18537185 -0.51569635 -0.71396685 -2.0405002 -5.721771 -1.37074 -0.08938842 0.98860234 -1.2163929 -1.9492906 -1.2768247 -0.7428852 3.208022 1.2954003 0.6711623 0.9357911 -2.0713203 0.23509109 -0.8573829 1.3378763
586 -0.3379982 -1.9010367 1.0766889 -2.4359543 0.23725064 1.0145828 -2.0092523 0.2266844 -2.5659676 2.5134037 1.088664 -0.6435923 -0.029384574 -2.317059 0.36314264 -0.43809056 0.13238761 -0.96987087 2.0625086 -0.32395014 -1.763232 2.6197364 0.27827874 -1.7924801 1.4881529 1.7319528 -1.1164345 -0.14230536 2.2324266 0.20115738 2.7669978 -0.33197922
3472 1.4853456 -1.5823127 0.74608773 -1.8623725 1.3993365 -2.3316464 -0.798847 -1.8898684 0.8533656 3.3938823 0.7575733 0.08877105 1.5440911 -1.938337 -1.7989122 1.9473659 -1.2901508 -0.37238494 0.35856834 0.9587149 -2.0647876 1.6212702 -0.52606165 1.2142837 2.7525003 2.6485162 0.8355227 -0.8466696 -1.8729165 2.0049553 1.2876472 1.8805163
8127 0.3759499 -3.3313315 0.9360908 -1.1135737 1.7620479 -0.5432665 1.8960181 2.4569526 -0.23783737 2.6649103 -1.4836397 -0.6450183 -0.086978614 1.7696201 -0.085439764 0.65134054 0.032363065 -2.4251626 0.5610507 1.2169392 -2.594396 -0.72476846 2.4187255 1.4848855 -0.9559549 -0.30354938 0.81998265 -1.3856966 0.4644161 -0.92951065 1.1719469 -2.6663282
4680 0.8497347 -1.2183886 0.99419093 -0.39174333 1.3898321 -1.6041889 -0.13573875 0.57772785 -0.38817218 2.779471 1.4642396 -0.034303214 -0.995877 0.673088 -3.1380873 0.16959503 -0.5926777 -2.8619351 -0.1537605 -0.9518174 -2.7537706 -0.29782128 -1.3677093 -1.9412814 4.6358833 0.8039128 -1.4971492 -0.3808909 1.644837 -0.1400482 -0.21812786 -2.7020187
4142 -0.23206006 -2.5410097 1.9795668 -2.2787158 -0.21200897 1.0973693 -1.2647063 0.1286555 -2.4583433 2.4591837 1.3772864 -1.7948921 0.4998066 -1.7769041 1.0957528 -0.48371255 0.343722 -1.4744499 2.0432684 -0.70921236 -1.2946156 3.0298505 0.64413536 -0.47787285 1.0768129 2.4231977 -1.3874744 1.0279908 1.3777659 -0.1422973 2.5873039 -0.30135584
1591 -0.67849255 0.9651414 -1.3326657 0.15449838 1.349282 0.974117 1.8383368 -1.4106735 -1.7568152 1.3020529 -1.1190562 -1.5691112 1.7538909 -3.5187933 0.012762084 -0.97440875 -2.7428153 -4.071953 1.4674724 1.5632493 -2.1848104 -0.5374513 -0.7393214 0.2763265 0.57884496 0.66586477 0.47160396 2.999513 0.8028776 -1.1317434 0.6244989 0.25066996
3256 -0.13463715 -0.15450275 0.50962514 -2.8230746 -0.38769603 -1.9715315 0.1267142 2.911704 1.7010823 1.0855064 -0.39352733 -2.1231904 -0.9794101 -1.6195717 0.92162144 -1.5815818 0.92265683 -2.4597507 2.929859 3.2531586 -1.1665078 -1.0575517 2.3333087 0.11335058 -0.505946 -2.5734043 -0.47659057 1.2130927 -0.064472586 0.7251772 -0.27754444 -0.8427599
1822 -0.23913412 -0.87372416 0.39063796 -0.25216806 -0.13769469 -0.5173494 -0.9794362 -1.0770997 0.4413516 0.47179058 0.864494 -2.3141239 3.691514 -0.56349546 -0.80392164 -0.19421247 -0.8040155 -1.443281 1.9364269 1.443893 0.56180143 -0.97441447 0.940655 -0.41009903 2.1666474 -0.8055919 -0.4862069 -4.8264256 0.44840378 -1.1184088 3.247822 -0.3153504
459 0.18898132 -2.418441 0.2239765 -2.7801824 1.4083695 -2.826735 -2.083937 -0.10531507 -0.4995263 2.861849 1.1782292 -1.0787032 -0.34372747 2.0075643 -0.4520749 -0.36013243 -0.96181494 -1.559433 -1.4349282 -0.9722721 -1.9691409 -0.8913048 1.5953299 -0.8539048 3.2304378 0.93951833 3.011812 -0.4114875 1.244355 -0.73003227 0.5873913 1.924747
7194 0.53985935 -0.84520996 1.9185426 1.7987264 -2.5557878 -1.2200309 2.4697444 0.9882089 0.7638349 1.7985002 1.4616721 -5.587509 -1.1927088 -0.5808649 0.11251498 -0.80763936 -4.0185266 -0.5705043 -0.5787635 1.3395789 1.0962777 -1.0964847 0.7437882 0.4895418 0.5968554 0.934854 0.6924539 -0.4661495 1.474442 0.120747566 0.71832556 0.9449571
4474 1.0454643 -4.6443405 0.32731715 -3.0918388 2.3783908 0.13383363 0.20135452 -0.9940438 1.0379233 1.9733403 0.0020723008 1.2905774 2.6779761 0.8836868 -1.6706306 -0.9822275 -0.46131757 -2.3724236 0.4480667 2.1629562 -0.2651825 -1.1097575 -0.27958253 -2.3491435 0.9704862 0.1269402 0.07271004 0.37272593 -0.068004735 -3.1360283 -0.49291432 -0.60773283
1230 -0.4030315 -2.0572696 1.3139895 -2.375611 0.46042556 0.94987607 -1.7209733 0.27560973 -2.8841174 2.846485 1.1084989 -1.4809352 0.11800597 -2.1781864 0.6461783 -0.58056617 0.3548332 -1.1050831 1.748613 -0.38899517 -1.5008674 3.0357666 0.2659228 -1.3485814 1.1511004 2.516391 -1.6222401 0.39887178 1.3565229 0.3126804 2.4399364 -0.31103826
7078 1.3361769 0.14730601 0.3019376 -1.1678113 -0.06846749 0.71089363 0.30522978 0.93186927 1.8814731 3.6891444 -1.203217 -0.42535064 -0.5595481 -1.0101066 -1.0371246 -3.5193765 -1.6771542 -2.7201636 -1.6152543 1.3031158 0.053843115 -1.6833187 -3.2423284 -0.24304003 0.7430229 -0.3472312 -1.5596641 0.31902316 0.7595624 0.5646671 -0.2857641 -2.2140887
7093 -1.5408978 0.04987601 0.6419702 1.0690229 0.755549 -1.0573806 1.1895744 -0.5695303 0.03296871 3.7620652 3.138849 1.6260823 -0.8155908 0.41856328 -3.5902104 1.2511803 -1.4869653 -2.9859016 -0.051023874 0.31721854 -0.40342593 0.7829384 -0.8821804 -1.0381967 2.5636451 1.4399738 0.48098892 1.4243966 0.31760964 -0.6874793 2.4687562 -1.2439495
4040 0.5199788 -0.59158725 -0.06673069 0.39575943 -1.0656863 -1.3787357 0.9279629 -0.16305085 -1.5561346 1.450378 0.029068101 -0.99913764 2.788527 0.025780337 1.1406845 -2.8469632 -0.09692826 0.18666942 2.35131 0.43709004 -3.189902 -2.3097537 -1.0663068 1.3134493 1.8547518 2.6123993 1.1567336 0.2850588 0.8341511 -1.8123394 0.18019691 -3.5496404
3880 0.61009717 -1.7496674 -0.58286417 -0.5510684 1.3282062 1.0935148 1.2734064 -1.6393305 1.7299339 0.69054055 2.0478275 1.2294588 1.1590587 2.6759796 -2.4944036 -2.079035 -1.5682956 -1.3364037 0.31305802 1.427744 -1.3076224 -2.7615266 1.9272836 -0.16692403 2.0164945 0.024837498 -0.7272837 0.62150544 -0.59795994 -0.34236974 3.2638092 0.98939025
4548 -2.4650106 -0.62954956 -0.46082914 0.8243552 1.3941419 0.5367374 1.2928182 0.35353515 0.14481676 3.296806 -0.06973064 1.6980926 -1.012897 -1.4437529 -1.0397991 -1.2317502 -1.3505868 -0.6128151 0.09140768 0.6998945 -1.4896084 -3.0001695 1.4350729 -2.101261 1.303645 -0.8388353 0.58648807 -0.88164055 1.7471343 1.8484144 4.92298 -2.223368
7532 0.2871278 -1.2738668 0.07936224 -1.1561811 0.3734618 -1.3147278 0.32923818 2.6313689 2.001054 0.98712593 -1.2593813 -0.75065535 -0.60412616 -1.6191546 1.7104925 0.021842267 0.504484 -1.5341908 3.063281 3.3362837 -2.8350022 -2.0445051 -0.1777158 1.7141289 1.5923206 -1.4819771 1.3021566 2.7474768 -0.88151604 2.7934127 -0.96702135 -0.4866761
4179 -0.46490228 -1.4371248 -2.261021 0.70988834 1.1074656 -0.5991989 -0.054677323 -0.3163482 -0.033034585 0.9735436 3.0579147 -2.727102 0.6085164 -1.8125463 1.4314293 1.6057142 -0.19153608 -2.3751192 -0.04735059 2.2510326 -0.64308816 -2.9391057 -0.9253154 1.7056843 2.3209438 -0.49213573 2.555706 -0.2982299 -0.60413706 1.96213 1.8381687 -2.7798753
8684 -1.6143185 -1.6366361 1.8628954 -0.029036706 -1.1864183 -2.5687797 -2.3122923 -0.8861082 -1.0904671 0.51077193 -0.93661433 -1.2896923 0.59335923 -2.322658 -2.852983 0.31381765 0.9664619 -2.111357 1.930062 0.112550914 -3.2294698 -1.3886653 1.0027356 -0.5461359 -0.8743943 0.4650895 -1.125514 1.8305494 3.2766201 -1.2051423 0.32999313 0.11510842
7030 0.23083633 -3.154624 -1.0815914 -1.0881364 0.14845213 1.6372856 -1.6259689 1.4560038 -0.6811002 1.9482026 1.2161713 -1.307607 3.6797407 0.9022236 -2.1135705 -1.8325204 -0.021997904 -2.348553 2.8138745 1.5917836 0.0180526 -2.2829099 1.309352 -0.35347807 0.39402786 0.014261026 0.52254814 0.72250223 -2.7612784 -2.6291761 -1.7121717 0.19807617
7825 -1.1184978 0.15290132 0.9176254 1.2294123 -1.5995315 -2.4805093 -0.47836757 -2.04061 -0.63873893 -0.4756585 -1.0099347 -0.99756163 0.68908113 -0.66633046 0.7504231 -2.346105 0.042081304 -2.2379196 3.18544 1.4969549 -4.038078 -2.0595438 3.0908456 0.973983 1.4417716 -0.48019764 -0.972492 0.1862301 -0.113799766 -0.41136628 0.39345485 -1.9919219
9809 1.3679477 -1.9778345 2.3591871 -1.1775533 0.8694162 -1.676446 -1.7420915 -0.623522 -2.0549076 3.3545094 0.033222307 -1.2007525 -0.934184 -0.65287626 0.695082 -1.4529158 -0.6350495 -1.1011425 0.10096091 2.7937336 -2.1473567 1.2420026 1.2987247 0.53263116 1.3194658 1.1265968 2.02325 -0.06287742 2.3017132 -3.0198538 0.15557536 2.978645
5319 -2.8880918 -0.51744604 -0.643644 -0.33070195 -0.3808795 0.12374959 1.9926928 -1.2327421 -0.3879804 0.7976433 0.6174151 -1.2165337 0.01052103 -1.0419569 -0.044985916 3.2791815 -1.1379308 -3.9572723 0.9847138 1.8605362 -0.47091016 -1.3952798 2.128474 0.14750442 1.8646619 -3.5987 -0.3348576 1.6305707 2.0108583 1.4486538 0.87779397 1.2839826
3797 1.5385321 -1.7621441 2.8586152 0.2587342 -0.52610546 1.1373216 -2.661156 0.048128437 0.59299475 2.2177243 -0.43970716 -1.959927 0.93350947 0.9203682 -1.2041436 1.8963181 -2.454507 0.15144539 1.7227842 2.1902032 -0.2338294 -2.1086993 2.4824884 -1.2064829 -1.3339146 -1.2962787 -2.1177258 -1.3279546 -0.07488711 -0.391022 1.1638161 -1.6606749
9845 1.0084609 -2.5800538 0.12940696 -0.7012395 1.3192542 -0.95958 -0.4133618 -0.34227693 -2.0915549 1.7742227 0.7122473 0.83845437 -1.346679 -2.8809788 2.2175174 0.37167984 -0.8016495 -3.2683542 -1.0145316 1.0460837 -0.8610008 -2.0433552 -0.55933124 0.13514422 2.8943942 1.5131828 -1.1324787 -3.2066207 0.11752168 0.024410464 0.51653165 1.7181863
5322 1.070232 -1.122144 0.7528537 0.7150157 1.5422318 -1.6017132 -2.2859676 1.6849136 0.8316661 3.502093 2.4153728 -0.426345 0.24093334 -0.32853228 1.6383004 1.1541086 -1.9510409 0.83739763 3.1345253 2.77832 0.56902 -0.47408837 -0.4884928 -0.30394745 0.81059116 1.1392732 -2.349035 1.8470563 1.0329674 0.6258875 1.017463 0.49679267
1141 -0.2530484 1.1217755 2.5353038 0.056324814 -0.6258259 2.6672964 -2.7768698 -0.8534987 1.8756318 3.8355033 -1.3022203 0.12438586 -0.9378127 -2.4039645 -0.31403264 -0.5775636 0.39332396 -0.38858557 1.3300742 2.0671258 -3.6544383 0.3995917 1.8388608 1.7115715 -0.9144632 1.1215516 1.9907758 -0.050759554 -0.9624952 0.55803764 1.355438 -0.6036011
8574 -0.059881795 -2.4781342 0.92401266 1.6030376 -0.6903092 0.89031565 2.1375985 0.32787183 -0.9863775 1.6800658 1.1878145 0.15833719 -1.9959286 1.9522423 -1.332872 0.6971183 -0.8517359 -2.28436 1.402712 2.8745275 -2.728469 -3.000141 2.1553495 0.3019198 -0.8322945 -0.69861287 -1.8963817 -0.50003195 -0.55970985 1.4605532 -1.6183553 -1.0873845
6499 -1.084762 -0.9665996 -1.9355171 1.2056402 1.2034692 -0.2545123 -1.8562872 0.20188457 -1.3458118 1.7320592 1.0246117 -2.4630783 0.4240535 -3.6216924 0.7409301 1.5232369 -0.71449715 -1.8920617 0.095484145 1.516973 -1.0163715 -1.8738253 -0.95112777 1.5965743 1.0230871 0.9871927 0.92850745 -1.4377801 -0.062337637 0.18770744 1.3908205 -4.790269
4734 -1.7325011 -0.11084179 3.0505605 -1.1219401 2.133344 0.3042037 1.7837404 -0.16986036 -0.30753043 0.11868655 0.7119562 -1.5388342 -1.5605464 -0.9751421 -1.6253024 0.062900834 -0.49129522 -1.8805025 1.7551749 2.6114023 -1.4511478 -2.5265524 -2.8338385 -2.388377 2.0439844 0.29618728 2.9792619 2.5172768 -0.51956445 -0.79227096 -0.03881588 -1.1785854
5599 -0.3016248 1.7870868 1.1725383 0.22059621 -0.92519385 -2.3414629 0.675839 -1.3305217 -0.7665801 0.99584806 -1.2986742 0.9824389 2.4066043 -0.32885134 -0.9224825 -0.7811262 -2.7018375 -0.39112046 1.1472198 2.183023 -1.1261449 -2.1307182 1.0621623 0.62683326 1.2415247 3.0365322 -0.71958613 0.17087254 -1.1968517 -0.16561659 3.2398238 0.36746913
8689 0.5816694 -1.6842066 -0.88405454 0.5093 -0.63877046 0.24233821 1.4779574 -3.3524053 2.9313705 -0.49658784 2.2018564 -0.40306193 -0.79942256 -0.040399242 0.3571922 -2.2236414 -0.23888944 -3.2443326 -0.5877379 2.2539976 -0.8421464 -2.5728033 1.8513764 -1.6876551 1.9023411 0.6798279 -1.1253986 0.40182573 -1.6875587 0.4427223 1.9483962 -0.044649307
9384 -1.2213386 -1.685986 2.8148506 -1.9062879 -2.1941853 -0.011680355 0.22765526 -1.0536667 0.02500413 -0.08407708 1.8740327 -1.9603751 0.64116484 -0.5095017 -1.386987 1.2436298 -3.3659196 -0.54547244 2.0142233 0.9667486 -0.38434106 0.19703963 -1.7613479 -0.8805195 2.3626494 -2.0668695 -1.8984632 0.16342555 3.1554246 -0.9058603 1.0719941 -0.25899547
4252 0.44318336 -2.4795475 1.8022413 -2.9353693 -2.0139637 -2.0927773 0.7939286 -1.7416581 0.8073988 2.1585553 -0.111262664 -0.98972654 -0.34985238 -2.9194608 0.38242114 -0.48324952 -3.3271403 -2.9838865 0.54409593 -0.6116986 2.1743364 -1.5672485 -2.061559 0.08157282 -0.096588984 -1.3041309 -0.47496814 -0.5377989 -1.8281398 0.82707995 0.0074548316 0.7947792
787 -0.75335884 -3.367446 0.63509554 -1.5150349 0.48034662 -0.21145166 -1.9362972 0.08259689 -1.5079279 2.701041 2.5982664 -0.8899436 2.0055718 1.7668321 1.277451 -3.3336833 -1.9412514 -1.0818499 1.9313585 -0.74481326 -1.3572184 -0.6894963 -1.9714617 1.1007518 0.123327695 0.3142131 -1.4348743 0.676427 -0.71539474 1.2730286 -1.6793594 0.1767215
6900 0.3568373 -2.246404 1.9230691 0.6312188 -2.6544828 0.7870616 -0.3795867 -1.7634223 2.6711648 4.354753 -1.5286685 -2.6636248 0.058124207 -0.37692523 -0.69635504 -1.0181506 -1.9439721 0.55847293 0.70249546 -0.7599138 -1.0408932 0.44879583 -0.41856992 1.6253154 0.13359916 1.2099521 1.6524364 -0.28840274 1.0883403 0.45687643 1.2146732 -3.0690634
8492 -0.32148254 -1.263042 0.5328147 -0.031219233 -0.04726736 -1.1628829 -0.6515704 -1.0199544 0.21508895 0.79593235 0.89675516 -2.1519544 2.98836 -0.40284008 -0.6688282 -0.3258011 -0.9199419 -1.2372746 2.480666 0.91122997 0.5472055 -1.2192396 1.0691273 -0.86828536 2.122718 -0.57635814 -0.56494033 -4.557186 0.62687576 -0.9286173 3.0574858 -0.08086178
51 0.48656568 0.17478715 1.3255699 -4.8714375 0.12681854 -1.8910723e-05 1.5271211 -2.2279088 0.09493127 1.0909165 -1.0383856 1.2662386 0.47148445 0.27536976 -0.32096544 0.085108005 -1.7868222 -1.8741455 2.1366942 4.00301 -0.9170972 -0.84548557 -1.1070876 1.5224218 0.45229658 -2.2134135 -1.8025657 0.31681082 -2.2854211 0.1351853 -0.49482957 -1.1952487
2212 0.075580515 -2.271047 0.26731277 -0.9884128 0.5223238 1.0843916 0.27860627 1.320952 0.26304665 4.208145 -0.32694525 -1.0504414 1.3917043 0.094607435 -1.634744 0.018342448 -0.5058638 -0.22748862 2.0143917 0.9632444 1.5387774 -2.6176956 0.8387228 -2.7787445 0.2348989 3.1265566 -0.8044333 0.27874258 -0.4488616 -3.6435034 1.2911754 0.3237609
1816 0.58734834 -0.71690226 0.6494607 -0.06964644 -0.5770032 0.21534534 -1.6286379 1.1020807 -0.8860322 0.13899592 0.51992214 -1.5183463 1.3585341 0.122442655 -1.9118756 -1.4991443 -4.5353985 -1.9694133 0.57924557 0.76310587 -2.5627017 -0.06264412 1.6794994 -1.1332202 2.7760928 2.0367053 0.44602266 -0.83322793 -2.77165 1.0313057 -0.3621208 2.213323
5876 -1.8099835 0.9057829 0.4999269 0.084814094 0.21760337 -0.28269726 -0.5258744 -3.2401934 1.949436 2.522866 -1.2253672 -0.68392885 -1.3057363 -3.0157619 -1.718184 -0.8651824 -1.695239 0.5733395 1.5215194 2.3905993 -1.9255127 1.9880663 1.76288 1.3152685 0.61287886 0.8763352 0.0058779293 -1.7686187 0.38203314 -3.1098309 1.7379583 0.6177851
9949 -1.2582015 -0.015980655 0.80910164 1.0834831 0.69461954 -1.1108264 1.3390923 -0.37903377 -0.12662843 3.73504 2.6708543 1.3377229 -0.8995019 0.64162475 -3.6149187 1.2182469 -1.3546909 -2.8336854 -0.16952112 0.1823184 -0.6242406 0.47440612 -0.9984219 -1.3551854 2.9521916 1.3865757 0.14150892 1.1456891 0.4148348 -0.6501054 2.3040855 -1.3388152
7511 1.1420099 1.162433 -1.2067575 -2.194151 -0.14954731 0.64989156 -1.5751095 -0.42484888 0.96094984 3.6732242 0.6438744 0.5664793 1.2006065 -1.7230184 -0.3285135 0.4232767 -2.1377797 -2.862501 0.5385415 -1.3822349 -2.7688646 -0.48503628 2.288278 1.5858709 0.56598204 1.1577634 -0.5900988 1.1827568 0.6982705 0.7671416 -2.0943773 -2.7681687
3232 -0.48568192 -3.700898 -0.24549972 -2.3381677 0.5785593 0.6489299 -1.3035874 -0.4196454 -1.9447554 2.1166918 2.607659 -0.55780864 2.146054 1.8959669 0.32816827 -2.9988337 -1.6109459 -1.4314451 1.9216188 -1.3499228 -1.3888923 -1.0259322 -1.9452473 1.4403802 1.1006373 0.69657737 -1.5224693 0.6132441 0.027058693 1.422853 -1.5260104 0.23212694
4881 0.84985113 0.30846918 0.15245797 -3.0914836 -1.8538116 -2.1575646 0.8550229 -1.5585304 0.9603115 4.4356575 -1.1073515 -0.61492056 2.5399027 -1.2600948 0.593245 -0.68277043 -1.6675134 -0.36013484 -0.16070756 -0.0133356 -2.0923512 0.61655813 1.2549424 -2.6587946 0.3890531 1.646703 -0.5960116 0.9816361 -0.027168456 1.9172914 -0.60569584 -1.1273446
4979 0.7829877 -1.3386453 2.2521715 0.10401366 2.1966596 -0.040304884 1.9461492 -0.72498405 0.5745654 1.2290013 -2.6121569 -1.1962346 -0.68761814 -3.8281488 -0.8179842 0.18620676 -0.44896933 -3.5646892 0.23444475 1.4504284 0.097028375 -2.1719463 -0.30261216 0.37557307 1.1121112 0.30217496 -0.66421133 1.1714616 0.42492363 3.019458 -1.1132412 -1.942485
162 0.12218353 -0.66719466 0.058468163 -0.23499157 1.5046643 -1.4197981 0.33724868 0.3412019 0.0041508004 2.9773414 2.2384965 0.9984542 -0.69639117 0.14277378 -3.3355653 0.039159678 -0.59973574 -3.0940292 0.06704008 -1.0273054 -2.2253067 0.4132179 -0.63396704 -1.382292 3.8319862 1.3856539 -0.3838614 0.7668327 1.0270342 -0.7445632 -0.21168935 -1.9356018
1885 -0.3060755 -1.6951659 0.9584207 -2.461748 0.5634679 0.91809326 -1.7991372 0.2274591 -2.6829183 3.0502975 1.0346136 -1.271822 0.031391438 -1.8961217 0.47727928 -0.524522 0.06898259 -1.191544 1.7262253 -0.042562693 -1.7837088 2.338036 0.20637715 -1.7897046 1.5093303 2.263311 -1.5388049 0.18659592 1.4101909 0.42004487 2.3512204 -0.32730374
8191 -1.1608533 -4.042063 -1.1248593 -0.99817395 0.07323007 0.06712855 -1.5099505 1.166975 -0.7583526 0.5816222 -0.48890677 -1.569035 -1.6299832 0.2286201 2.6434245 0.83872306 0.5173004 -5.9505033 0.7976661 0.05028649 -1.2880208 -1.7206631 -1.0874385 0.57996917 0.8992148 -0.0041500367 -0.09732048 0.3252108 0.8505895 1.0731903 0.9178647 0.2642093
2814 1.8108672 -1.0034363 1.5344446 -2.8654885 -0.1282685 -0.68387556 1.0080559 -0.8854763 -0.7171892 3.1502907 1.0088584 -0.4157573 0.19215661 -2.0244546 1.218593 -1.8300009 -1.1709177 0.073426776 0.15302326 0.49615893 1.4643589 0.43120944 0.7943161 5.1972747 1.3647597 1.4604713 -1.531281 -0.23440172 0.52603495 0.36582306 1.4306753 -2.0150883
8888 -0.10975786 -0.43514243 1.4164107 1.6634301 -1.2682215 -1.4196444 1.6600081 2.4955745 0.10381651 2.3776407 2.4889016 -4.662486 -0.83509713 -1.0634456 -1.0976392 -0.24629079 -3.024714 -0.71649414 -0.33127713 0.7609994 -1.0560794 -1.2674543 -0.02577212 1.1128631 1.723061 1.1488051 0.5010697 -0.65488917 0.5376612 0.5985336 1.3806993 1.0311621
5297 0.64002246 0.40724316 -0.044357296 -1.4531338 2.6434884 0.59983206 1.199365 -2.8568337 2.502537 1.8116604 3.4291923 0.64318734 -0.2926995 2.3565018 -0.8012442 -1.3639187 -1.7095456 -1.4347304 0.7162591 1.2319615 -1.5732776 -3.18413 1.9965612 0.048663963 0.855326 1.2115288 -1.8165759 -0.81758183 1.8645182 -0.71944124 0.45418334 1.8837245
5649 1.4197279 -1.2334678 0.91787446 0.5256008 1.449961 -1.8143036 -1.9107608 2.170033 0.6743139 4.2339935 1.4403363 -0.05611267 -0.2461832 -0.14157183 1.5172693 0.8202158 -1.8043242 1.0009857 3.6519284 2.4808402 0.42390102 -0.76958865 -0.43170416 -0.40708113 0.78009564 0.7870753 -2.4758208 2.0880537 1.4073557 0.39955887 1.2557161 1.1388953
2049 -0.120080985 -0.12241119 -0.67288834 -1.3186306 -1.8991282 -0.16256487 -0.039067622 1.2039773 0.27214417 4.43543 0.3610724 -1.2005414 -0.18285152 1.5092304 -0.43052652 -3.3829813 -1.6746573 -1.4352427 0.36241817 2.3694806 1.150085 -0.34746704 -2.4144707 2.077786 2.368683 0.025837768 -0.19257827 -1.3483689 -0.19159247 -0.06801349 1.4320459 -2.4633868
9531 -1.3221581 -1.5128206 1.361196 0.5545216 1.6803629 -0.2865278 -0.5836907 -0.6337377 0.18176146 0.43542477 -2.8692033 -1.6957726 2.042438 -0.5338308 -0.21638076 -0.011159295 -2.8723938 -1.263258 1.2822942 0.41105416 0.07209668 -2.6629398 -1.7754725 -0.88089335 2.4148176 3.5835502 1.0101999 2.3598323 -0.20313263 1.6112674 -1.0985087 -2.5392005
6147 0.73849654 -1.49906 1.7599114 0.30244136 2.2394516 0.20985316 1.6098031 -0.98078763 0.44924566 1.7945166 -2.645688 -1.2468086 -0.19925582 -3.6140635 -1.2606657 0.3736892 -0.2308499 -3.259918 -0.33695212 1.0247962 -0.34870467 -2.0955408 -0.6389513 0.29484764 1.1070758 0.54296213 -0.7746992 0.87714314 0.87457216 2.9475923 -0.54276025 -1.9617189
3341 -1.4965583 -0.57229024 -0.8485501 -1.4842257 1.0335824 -3.2638402 -0.40373662 1.0141732 -0.34655917 4.43155 0.8190374 0.9924452 0.003950519 -2.3021207 -1.2126242 1.7102412 -0.4977918 -2.4072573 1.6724943 0.64856064 -0.14835072 0.810694 1.2939233 -0.42110884 1.0346998 -1.0172769 0.29379016 1.6497682 -0.6198208 -2.50972 0.5241003 0.5143364
6569 0.5720078 0.26529002 -1.256495 2.1880343 2.1140618 -0.7610382 -2.5388987 -0.7802039 -1.2523712 3.544745 -0.5852691 -1.258238 -1.2641159 -1.2553294 -2.0052514 -3.279129 -1.0738661 -1.1773878 1.0062174 2.4471536 -1.3875957 -2.4664638 0.4886163 0.42503777 1.6047589 -1.0091038 -0.18659109 -1.272837 -0.48478284 -1.5101215 -0.38127208 -0.15503785
3539 0.011273686 -0.017697537 2.742606 0.3616927 0.4654268 -2.046477 -0.9151188 0.200733 -2.2124562 2.5222843 -0.85314703 -1.6834499 -2.973412 -0.067993306 0.26191634 0.779416 0.02703477 0.85345805 1.7548585 1.8908067 -3.4576488 -1.2171654 0.8076303 0.7538092 0.57392174 1.1369236 -0.21670954 -0.56260765 0.231221 -3.010907 1.9916692 2.0771253
5307 0.81250757 -0.8947668 0.6237622 -0.21943949 -0.9924757 0.6218991 -1.6856486 1.5260913 -0.45292994 0.46315733 0.41088104 -2.152564 1.5645564 0.47833368 -1.9606625 -1.217715 -4.518913 -2.1481786 0.84597015 0.6483981 -2.6427195 0.17995545 1.7763393 -1.0715926 2.433675 1.6892327 0.8568682 -0.9182341 -2.5504138 0.778439 -0.18149425 1.7094116
608 0.7709036 -1.9281892 0.33532214 -0.046665866 2.586285 -0.48563766 0.5334633 -0.7199781 0.74312294 2.0088022 -2.9245007 -1.5912069 0.66346323 -3.518259 -1.6264172 1.9671129 0.37531438 -2.8249202 -0.1794026 -0.27315137 -1.6181564 -1.6781106 -0.15762451 0.9836227 1.9334767 1.1883509 -1.0354792 0.68568695 0.66954535 3.587268 0.8388583 -0.9508102
8088 2.8033314 -1.4677422 -0.14537589 1.3594863 -1.1295775 -2.734541 -0.035375606 -0.7773178 0.42377594 0.83996063 0.9857902 -0.35027733 0.6686829 -0.4173551 1.1099675 -1.8858805 0.32795066 0.43888485 3.0636675 3.0445724 -2.47529 -1.3243935 1.0663738 2.5174272 2.005817 0.009820069 -0.033967055 -0.390398 0.23287442 -0.44348308 -0.1838421 -2.7773826
2843 -0.82736355 -0.25419256 0.3836192 0.4023423 1.4727786 -1.1602854 0.77532816 0.056422148 0.028710485 3.5955021 2.3105097 1.2486147 -0.5133555 0.49356857 -3.6736648 0.25310108 -0.55484396 -3.1027935 0.015232072 -0.41217306 -1.561939 0.7598987 -0.49841374 -1.2720051 3.5132282 1.5267819 -0.22545095 1.4397825 1.0328534 -0.5748957 1.1183217 -1.4074274
2694 -1.0068061 1.3337022 0.039133195 0.4280818 0.20784207 -0.38256887 -2.696603 -0.0074698837 -2.1301491 5.0342145 0.67222804 -1.813315 -0.7733021 0.5801034 -1.6279135 -0.8824195 -0.622645 0.5816767 3.4337308 -0.119975455 -1.1685596 -0.7375369 1.5120407 -1.1678603 2.4553845 0.27289182 1.4246286 -1.0579797 0.109946944 -0.44292763 -0.51259726 -1.2481462
9877 1.4443572 -4.3901196 -0.40247416 -3.0295029 1.6054776 0.6793359 -0.32693696 -0.50394875 0.26445648 1.5680643 0.5524584 1.0890695 2.4543927 2.2175934 -2.0142078 -1.402642 0.2220581 -2.858417 1.2633824 1.9290173 -0.28918278 -1.0260454 0.045560174 -1.778365 1.2156788 0.7425101 0.064741395 0.6954317 -0.9614671 -2.5910773 -1.3209226 -0.22647451
9694 -1.6351128 0.09774645 0.47488406 -0.46110088 0.4604331 -1.6689097 -0.560593 0.09143358 -1.5536078 1.482687 0.8044886 0.003944998 -0.4434676 -1.2097882 -0.4013643 -0.3154877 -3.2618406 -0.9318904 0.94075835 1.833156 -2.6282904 -1.8227694 -0.30248192 -0.8503414 3.4035778 2.4822233 -2.4558887 1.0076517 -1.2340251 -0.19723709 -2.481036 2.8303475
7671 -2.5886557 0.38221672 1.2347325 0.19863988 -1.835802 -2.4187865 -0.46671495 1.2259233 0.70069027 -0.22966778 -0.57021606 -1.6209718 1.8923765 -0.376022 -0.35145763 -1.8107792 -0.22760417 -1.7603555 0.3047922 1.4241703 -3.2118912 -2.0210721 2.625198 -0.7770519 0.84044605 0.16337249 -1.1926508 1.404466 0.39799255 -0.92269856 2.0963864 -1.377687
7959 -1.5373921 -0.43503195 1.179671 -3.3619769 -0.05046615 1.2543674 -1.038085 -1.0021875 -1.199338 0.26301762 1.750811 -1.3278615 -1.9470503 -1.1142799 -0.75735265 2.0219169 -1.9351354 -0.36855647 1.3750669 0.16007674 -2.937943 -0.74626255 0.7008723 1.8326417 2.7262776 -1.5192499 0.95989764 -0.851551 1.5819197 -3.1508954 0.38865528 -0.6872845
1138 0.54920506 -1.5899869 1.3967301 0.35748756 2.8453 -0.28415495 1.1951816 -0.8620828 0.5394489 1.3743029 -2.7397122 -1.3223318 0.24833292 -3.4559844 -1.183332 1.2169101 -0.096277595 -2.8297772 0.0038516908 0.6618006 -0.7244395 -1.6659555 0.14575131 0.803464 1.5810363 1.2873899 -0.5831688 0.76896 0.65542555 3.1552463 -0.43340528 -1.4119614
6473 2.5144377 -1.5364107 2.634453 -1.0617424 0.7678564 -2.7240124 0.86422026 -1.3050959 1.7871857 0.35713908 2.4460487 0.3435806 0.61912954 0.11219444 0.5320013 -1.8602893 -2.2708151 -1.9302756 -2.0266898 2.706606 -0.7424367 -1.4158442 0.6422012 1.4259298 1.1694087 -1.4202121 -1.4697595 1.9740351 0.35904858 0.31744248 2.1418865 -2.4567668
1337 -1.0101781 -0.41688937 1.8624135 0.5260991 -2.1525836 -2.38668 2.0041478 -2.8058388 1.1439685 1.4016477 -1.0286587 -4.256069 0.84433174 0.32494453 1.1043143 -0.31075674 -3.2343116 -0.01664291 0.3713238 1.9151083 1.1117604 -1.2066563 1.4466145 0.3647049 1.6621418 -0.6270006 0.52975374 -0.24870515 -0.2830782 -0.07068758 -0.95460176 -0.36855936
3039 -0.09676122 -2.339098 -0.7206147 0.7309785 1.1053324 0.95946556 0.3106654 1.4850144 -1.4706132 1.4728234 -0.71907073 -1.3521739 1.3553169 -1.4277879 -3.0349116 -0.09160336 -2.298304 -2.0828729 1.5385681 2.323733 1.2952493 -0.57954544 1.0921032 -1.3399646 1.4630357 2.4976563 -1.3857267 -0.73814815 0.6042736 0.052989744 2.2023237 1.6385697
5892 -1.0431417 -1.3464957 2.553575 0.2455605 -0.3964732 0.09454521 -3.5519032 -1.6106998 2.7033415 3.09858 -2.1969635 -1.5164598 0.4420963 -0.6933729 0.64959586 -1.7385944 -0.9525765 -2.302471 -1.0077721 1.183705 -2.3352432 -0.44973657 -0.114390574 -0.9613493 -0.35858464 -0.22694646 2.0576415 0.3916563 -1.7739695 1.7867872 0.20558356 -1.9459887
4737 -2.1532514 -1.3710691 1.0292329 0.1779965 3.0183544 -0.9096771 0.12482854 0.20586278 -1.4470128 0.7856031 0.23715381 0.21092314 0.64630526 -3.1533096 0.2841099 -0.14669038 -3.1302967 -2.5576499 -1.1088324 1.7044173 -0.030359874 -1.1072116 2.1611235 0.6212928 2.6679955 -2.8620198 -0.77994365 -0.4089061 1.8614227 0.035406068 0.15848142 0.9956036
2896 0.6337371 -2.5273035 -1.1182269 -0.0445899 0.016574165 0.042404447 0.59054923 -2.313691 3.1496005 1.3073788 -2.5356312 0.78335536 -1.66739 -0.5954594 -0.62110263 0.45212474 0.10211774 -1.9405801 2.0986016 2.0515196 -3.7157013 0.7032657 -0.41653922 2.2448657 0.44827354 0.33639523 0.0021002383 0.17113198 -0.24513361 -2.5267568 1.4000653 0.2512483
1023 2.8274887 -2.1064863 2.6782777 -1.0678972 0.520851 -1.655394 0.66587275 -0.87399715 1.0304772 0.914139 2.1745985 0.37218815 0.8115569 0.40432104 1.7101858 -2.3212566 -2.3502724 -1.3554549 -2.0406175 1.2099674 -1.571009 -0.8767749 0.18396248 1.9835985 0.0921125 -0.770615 -1.8091738 1.7496876 -0.36753866 -0.5581889 2.7006607 -2.8861744
5371 -2.682887 -0.24372531 -1.7534654 -0.65839714 1.1836171 0.0077063013 -1.446143 0.8490232 0.034171652 2.483263 -0.93283993 -0.8471708 -1.9453132 0.922818 -0.7595882 -1.0696719 -3.9424322 -0.9009442 3.5397017 1.7830802 0.84695655 -0.6114835 -0.0996632 1.5185574 -0.7000326 1.6582246 2.90257 0.21293718 -0.017662872 -0.61140746 0.41696167 -1.1290628
8844 1.358278 -0.46350574 1.4714508 -1.7477752 -0.35715458 0.43897834 1.1167427 0.85724795 1.8116357 2.4733958 0.2082509 -1.1021336 -1.9491231 -0.37182277 -0.83132225 -3.5883899 -0.5290323 -4.494224 0.75214523 1.4566715 0.19802098 -1.9759791 -0.8129322 -0.012395026 -1.066059 -1.6512582 -1.5241292 0.4109354 1.1602944 -0.555679 -1.5896703 -1.9076221
5385 -3.8815017 -1.2243218 0.73638046 -1.7134178 -0.71159303 -0.52112913 -0.9711591 -2.658524 1.7358491 0.85844755 3.2944827 -0.5666144 1.8960114 -0.0735398 -1.3841242 -0.3582225 -2.069109 -2.0978115 0.48481658 0.4953356 0.99417716 -0.46131325 -0.07907676 -0.9273777 1.33289 0.68265367 1.9957272 1.2073064 -0.8485813 -1.310234 0.14479792 -1.930482
1188 -0.726017 1.719428 1.2464484 -2.3206367 -1.5787721 -1.5715747 -1.8516176 -0.38196734 1.4418931 0.87966424 0.14485763 -2.3056488 2.2149854 -1.7136601 -1.6991773 -0.08417466 -0.2785737 -2.4219773 -1.4547977 2.6540895 -3.7219865 -0.48992622 0.6490255 0.7340104 -0.09982023 0.326042 -0.64917505 0.33842397 0.6021409 -1.6237173 1.0267261 -1.3357855
8957 -1.4335113 -3.7373774 3.986211 -0.4296858 -1.6317434 1.5227816 -1.4281998 1.1612316 1.9578635 2.126039 -0.26013625 -0.2488796 1.5597813 1.35219 -0.7676569 -1.3259565 0.96789396 -1.54288 1.380265 0.7709962 -1.3628148 0.6676148 2.393751 2.3166008 1.3003916 -1.4656773 -2.0628016 0.12705103 -0.31279168 0.42052484 0.43084317 0.34706628
927 1.9289718 0.086869754 1.6007742 -3.9454882 1.1925714 -0.43505752 0.06461351 -1.8135926 -0.103401944 1.7644612 -0.06507831 -0.16953762 -0.74349385 -0.35664353 1.2645171 -2.7937813 -1.1801076 -1.7917564 2.3149357 1.3124466 -1.3755217 -0.24201919 0.5112968 0.4441625 0.5143782 2.4702144 -0.8187445 -0.6063778 2.2040129 -0.7725085 -0.7145669 3.2942567
6563 -0.34359056 -1.7483702 1.0344062 -2.139921 0.22504692 0.8763522 -1.6238327 0.17603572 -2.4273176 2.4178932 1.1036234 -0.91821826 0.16203167 -2.0640268 0.5051328 -0.53749794 0.21830589 -1.0281353 1.9209355 -0.3365287 -1.3536781 2.4151707 0.17162295 -1.4406549 1.4321038 1.7395289 -1.0284597 0.14833058 1.9783887 0.21271685 2.516711 -0.5178836
2556 -2.8680737 -4.666872 3.752251 -0.7733609 -0.23237018 -0.46606305 0.60160697 -2.7836328 1.19139 1.1494428 0.08138721 -1.8935302 -0.27342132 0.943672 2.2954123 0.26793063 -0.260447 -1.7738883 -1.108194 1.7069341 -0.13638014 0.61717033 -0.7989125 0.45755568 2.033989 -0.5183524 1.1591371 -0.56025743 -0.24326979 -0.18331255 0.54168266 -1.2290467
8705 -0.23802237 -3.269454 0.99504316 -0.99669355 1.4375036 -0.40621442 1.2619473 2.8990932 -0.26165643 2.751072 -1.3261541 -0.6824815 0.0669654 2.0118349 -0.29501146 0.40521908 0.06931648 -2.307662 0.37749156 0.95471776 -2.2543483 -0.8833014 2.7005148 1.8750641 -0.5659991 -0.21205151 0.7601832 -1.3321052 0.48893034 -0.56163853 0.9635438 -2.2889717
3668 -1.1768701 -3.215841 2.117395 -0.41523564 -1.3797879 0.6788862 0.44730031 -0.92405283 -0.5255028 1.7346407 1.1020391 -3.1556664 1.0563352 -2.2821379 1.3274692 -1.0770775 0.3597339 -1.8824674 0.875427 -0.4697964 0.2577713 2.2972782 0.47191948 1.5153302 0.8212813 1.789868 1.0694807 1.2533789 0.63732713 -0.12440326 3.324155 -0.9470129
9658 -1.6718446 -2.5833657 -0.9096894 -1.5510353 -0.5206751 -0.11258056 -2.3656397 -3.395687 -1.7964296 -0.36875612 -1.1883833 -3.0856693 0.4881074 -1.6883363 -1.2318377 -0.46228063 -1.7011763 0.97722024 -0.34222424 3.0704238 -1.5358951 0.7635624 0.030259239 -0.4806202 1.5880041 0.8108212 -1.2205282 -0.87458634 -1.1665655 -0.9507895 1.6378398 1.0115628
3230 -0.13981566 -1.8643135 -1.3049439 0.5431715 1.2226546 2.2756135 0.22815718 1.6080368 -1.0556191 2.3428876 -0.6524321 -1.4945184 1.5570841 -0.93041945 -2.7409823 -0.05021233 -2.015421 -0.9918709 1.4416687 1.184209 1.4768673 -1.6274132 0.84824735 -0.7492626 1.8058705 3.0880845 -1.3029829 -0.3223786 0.010248769 -0.16940807 1.8995852 1.9929173
9284 -0.9828742 -2.1414602 -0.36059725 1.1460531 1.9047259 1.0872833 1.5632151 -0.3215408 -0.15361781 3.3659022 0.38169062 -1.508085 0.6186137 -2.32069 -0.6162323 0.4345754 -0.3713041 -0.028632838 -0.32442346 1.6017619 0.858607 0.72593737 0.816606 0.47741917 2.9746659 -0.9702359 1.2047043 -1.5821583 -0.8484812 3.6640844 2.203712 -2.7485292
8595 -2.7794747 -1.348203 1.0780083 0.22830679 -0.50601375 0.3398299 0.24846059 0.33367562 -0.35823634 3.0088134 0.39929473 -1.9743227 0.9544459 -1.2995455 2.885964 -0.01512942 -3.182524 -0.059564322 1.0902127 1.5411477 -0.7161294 -1.3740308 -1.4061668 -1.0775849 1.1172326 0.55743766 1.4153728 -1.9342166 -1.130993 3.020431 -0.09954643 -1.0281522
1194 2.919301 -1.8021777 2.839029 -2.5758934 -0.1698231 -1.7712139 1.6147037 0.25313887 0.45171687 2.2495635 1.8238989 0.87325644 -0.08738148 -0.18275663 2.1939316 -2.6259944 -2.434796 -0.77267814 -0.1724788 0.87056583 -1.6192368 -0.9636368 0.2045902 2.948658 0.28710282 0.71311367 -1.4208153 -0.093531184 -0.113398425 -1.3565915 2.3903992 -2.2226117
8646 1.6248719 -2.4351704 0.9534865 -1.6517128 1.2955742 0.7605056 -3.7272174 -1.1642214 1.1084434 0.29790545 -0.5972982 -1.7865869 -0.70758194 0.029921517 -1.7406652 2.0376928 -3.042393 -1.4716024 0.91379136 0.8260818 -0.69878596 -1.4742962 0.5802423 -1.2309874 3.5182898 -1.3464341 0.13243574 -0.4165278 0.2201278 0.46696532 0.22155213 -0.16035907
6508 -2.076413 -1.7339971 3.1632545 -0.16624483 0.8887398 -3.9751647 2.5166752 -3.4193451 0.6296812 1.8277154 -0.9885722 -2.7258084 0.9175777 0.8353263 -0.62468183 -1.032421 -2.387663 0.13126266 1.7453375 0.39533705 0.1304907 -1.1792625 0.64623064 1.1015947 -0.17812248 -0.24054344 -0.04968135 -0.40274173 0.7322096 2.3082619 -1.0813591 0.70096344
7073 -0.46190292 -2.7821584 1.5313419 1.8005863 0.96252126 0.1831566 3.2957633 0.47833586 0.052063335 1.5397679 0.92401654 0.030595038 0.14157054 -0.42168322 0.20787415 -1.5439031 -1.6246231 -0.7698526 2.8567464 0.8450035 0.09572965 -1.6836994 -1.0125498 0.38764277 -0.911648 2.026995 -0.30628124 0.9198471 1.2459954 1.5423827 2.6579015 -2.2316744
4441 -1.3606101 -0.5018765 -0.42160693 1.842995 0.102594584 -0.16818748 -1.5735886 0.73040056 -1.9943315 1.9084231 0.48303413 -2.1905217 0.75682735 -3.0699568 1.5401661 1.5374377 -1.8323517 -1.2874296 1.1213012 1.235055 -1.3037732 -1.0719962 -1.0615883 0.8136732 1.171071 1.0926276 1.5585576 -1.8348548 -0.56112856 0.03533026 0.40462747 -4.6061845
8223 1.8344234 -2.7686956 -0.04737761 1.6360109 0.80389845 -3.46651 -1.3561013 -2.424011 -1.4887558 1.0882072 -0.9334323 -1.6780319 1.4297357 -0.74591815 0.045794744 -1.0985659 -0.021735087 1.3082302 2.8443139 0.53322476 -2.2127788 -0.8782302 1.0385739 1.1167637 1.9687538 -1.5729254 -0.73541796 0.93581367 0.80880207 -0.7096275 1.1718897 -1.7016785
3369 -2.9278455 -1.4398164 1.2066873 0.14164451 -0.49548814 0.33400494 0.2793493 0.3308152 -0.31285274 3.115676 0.32457846 -1.9469119 0.9481666 -1.3505707 2.8839526 -0.09768567 -3.2203445 -0.12580782 1.0845284 1.5530862 -0.79999137 -1.3544838 -1.4524484 -1.1800075 1.1006092 0.62076724 1.2779639 -1.9715708 -1.1902479 3.0551739 -0.13508672 -0.9370779
9917 -2.1267934 -0.30117857 -0.7172228 -1.5754892 0.89361876 -2.931051 -0.38934517 0.48648202 -0.53732264 3.9636655 1.5197387 1.3928013 0.5595554 -2.1175995 -1.9115657 2.0647182 -0.949085 -2.4751203 1.2367879 0.58010787 0.21849255 1.033309 1.1444443 -0.1373269 1.0914742 -0.87440974 0.9399183 1.4027338 -0.26543495 -2.1833024 0.6053103 0.0037421954
4320 -1.6073623 -1.5193204 0.6532652 0.042692244 -2.0440087 0.7929742 -1.6534164 -0.87088484 0.7597584 2.6614933 1.0864035 -0.7942542 -0.21403536 -0.01842357 0.82345176 -1.9518701 -2.5255833 -2.5878656 2.8931282 2.6938007 -0.43777403 -0.9348738 -0.24588883 0.7602792 -3.4017997 2.4137623 1.0154539 -0.00032952416 -1.4243246 1.6206806 -0.6067113 0.101706475
6221 0.16614316 0.02814568 -0.08407039 -0.8942001 0.71500725 -0.40979388 -0.13162269 2.360629 0.8668411 0.9853124 -0.028598046 -0.9656729 -2.082939 -0.59202373 -2.5502553 0.29017174 -1.0458739 -1.8503876 2.177325 1.5898051 -2.27856 -0.7062867 1.5682398 1.2822791 1.7882628 2.3182912 -3.8346539 -0.64424896 -2.4291048 -0.99226403 -0.46254513 0.38547474
7279 -0.3167628 -1.4347667 0.56762654 0.025304923 0.19950399 -0.85608745 -0.38227373 -1.0509038 0.10845183 0.6212366 0.91379285 -1.7295904 2.8343852 -0.05780921 -0.8531828 -0.51614565 -0.9018387 -1.1589057 2.3314779 0.87039506 0.48373404 -1.3762892 1.2660806 -0.8732095 2.0763264 -0.55940014 -0.60850585 -3.9933271 0.582068 -0.92585236 3.099053 -0.09701663
4647 -0.4596016 -3.0064926 -0.03192874 0.36749983 -0.7710449 -1.7153802 -1.2282667 -0.276951 -0.44744065 1.9989117 1.14954 -0.9196688 1.5005027 -0.78836066 -1.172712 -1.5986245 -0.3792005 -2.557888 1.4977182 3.2707593 -0.32259142 -0.17336011 1.1305724 -0.06682117 -2.47413 -0.55918527 -0.1312147 -0.9232866 -4.395485 0.2545566 -0.17127842 0.23169573
3656 -1.3111788 -0.788575 0.9287337 -3.4480522 0.10442846 0.9097786 -1.3245931 -0.6902896 -1.6231879 0.6873866 1.7004989 -1.5205269 -1.7610743 -0.8168021 -0.30678934 2.0821023 -2.0368185 -0.40907824 1.0336807 0.08976011 -2.9561472 -0.6164021 1.2080541 2.0150578 2.8919063 -1.1941286 0.5715512 -1.2792654 1.8944868 -3.3988843 0.5619209 -0.5758048
7942 0.22027452 -2.540876 2.0954492 -2.0820565 -2.0714746 -0.7414425 -0.9223958 0.080511965 1.1975334 0.6138046 0.52296203 -1.473845 -2.3145895 -1.3166288 0.067513436 0.8660665 -0.6053064 -1.5288947 -0.17945524 2.6935627 -0.7308721 -0.3829522 0.15744689 -0.7359323 -0.69803715 4.58628 0.25293916 0.9263687 1.198776 -0.45470503 2.042339 0.010639885
4866 -0.27048352 -3.3351572 2.7864337 1.3825606 0.59867084 -0.17149156 3.9183173 -0.17548421 0.7069655 1.1733425 0.27357888 -0.90716445 0.5496702 -0.054439053 0.5276535 -1.5725061 -1.7651148 -0.71000826 2.965992 0.713569 -0.24018583 -1.4881076 -0.4057077 -0.47895092 -1.0857162 1.6653346 -0.28685585 0.5113422 1.3294028 1.4362301 1.7396456 -1.8966137
9032 1.3119595 0.6596024 0.020628348 -1.632025 0.12964283 0.2355465 -3.344557 -0.5046624 1.6230546 1.2414812 -0.13994618 -0.5769594 0.74663436 1.6011828 -0.2393426 0.9926178 -1.7764771 -4.769113 1.5171552 -0.51866835 -1.1619761 -1.1138026 1.51929 1.7560987 0.89333373 2.218736 -0.598013 2.614326 0.78644156 0.048336066 1.0444653 0.14857969
8194 -0.3207075 -2.0376208 1.451734 -2.4090686 0.30616727 0.68133837 -1.4752127 0.09367874 -2.6955588 2.774825 1.1146282 -1.7101082 0.21829756 -1.7919322 0.7317159 -0.31796205 0.05918711 -1.2730877 1.8241707 -0.15670092 -1.4672712 2.4675243 0.19014001 -1.0776817 1.1007397 2.4623733 -1.4577683 0.6071455 1.1521603 0.045082536 2.1272962 -0.47132453
2033 0.056889966 -2.426616 1.121352 -2.6059155 -0.24278072 -3.3663266 1.8371934 0.070206605 -2.599439 0.4166421 0.5056007 -0.76500416 -0.0996228 0.45109385 -1.3648012 2.0254548 -2.8292098 -2.642321 1.0686557 -0.90990824 -0.10094647 -1.4197761 0.6371039 -0.037911568 1.1395869 0.10798785 0.5954461 -1.7777822 -2.0700839 -1.0894412 0.13160414 -1.1487825
9463 1.6318973 -1.150001 2.3295867 1.7860203 0.55128044 0.44895586 -1.154715 -3.0206683 0.48870447 0.98076034 1.0976785 -0.013198459 0.939658 -0.985544 0.36134273 -1.0254487 -1.8772435 -2.2421339 -2.2071168 -0.12950315 -2.883368 -0.097455986 0.6643226 1.5755163 1.2672534 -0.122696966 -1.9725841 1.1708657 0.41742828 0.29980096 2.349687 -2.2531505
2249 -2.6694083 -1.8499004 1.8800603 2.605338 -1.2987272 -0.08548672 -0.9845435 -1.028818 -0.5854283 0.7223964 -0.27822357 2.2671309 -0.63855994 -1.1855717 -0.5144944 -3.0480828 -3.1162558 -1.3810405 0.037533883 2.8462813 -0.0135511095 -1.8390365 -1.5556637 1.6147279 2.5759642 -0.15390189 0.0073047816 1.1206288 -0.7929298 -0.52546495 0.8567878 0.14876209
6541 0.13966502 -0.30043137 1.4963052 1.8113538 -0.8244653 -1.2335017 1.6018085 2.064221 0.26978496 2.2113802 2.655208 -4.3962235 -0.9777489 -0.6565584 -1.1419705 -0.3897688 -2.765563 -0.45499316 -0.3524027 0.5715155 -0.76121324 -1.3985916 -0.116993695 1.1579154 1.4515376 0.96453226 0.3166944 -0.8592672 0.7859391 0.73507303 1.2058784 1.5548458
1162 -0.7960004 -0.70025575 -0.7501263 0.1680462 -0.18176752 -0.24024501 0.87609833 -2.4428916 -2.8310175 2.8345525 0.9022657 -2.4556208 -1.237463 0.068213224 -0.27827734 -0.23699345 -2.0024822 -1.7715406 0.97242117 0.18379551 -2.1281579 2.5181193 1.7273865 -1.4525521 2.6797175 0.14472333 1.4101133 -1.3411413 -1.7189832 0.41582486 0.9768345 -0.2837646
7165 0.12285196 2.114844 0.43817002 0.45857072 -0.28796616 -1.3887548 1.0590519 -1.2373211 -1.471908 0.22042683 -1.2255441 0.3964938 2.7372816 -0.7104038 -0.5008612 0.112797 -2.6530843 -1.1845452 1.8835815 2.0973966 -1.5544577 -2.0756643 0.94078064 0.76884973 0.9397936 2.9505587 -0.63953704 0.9700492 -1.0152638 -0.34498194 3.3909874 0.6908332
9892 1.9754661 -1.8661904 2.247322 -1.5169317 1.3956546 -1.7622043 -1.7850634 -0.96214443 -1.5310155 3.0404236 -0.3020117 -1.187091 -0.96780604 -0.442488 0.48588935 -1.6726147 0.11822706 -1.1222558 0.85908055 1.740396 -2.8884437 0.11932772 1.2884848 0.7603992 0.9430438 1.8395151 1.6392651 -0.026817493 2.099026 -2.1971068 0.0118001 3.360623
6937 0.24401242 -2.7605784 1.5037259 -2.6330683 -0.27804667 -2.91329 2.2307675 0.5907382 -2.569213 -0.26462615 1.2788384 -0.0834467 0.22651052 -0.18463042 -0.7412377 1.7686942 -3.0879533 -2.6091592 1.2691094 -0.4037117 0.089779995 -1.1179533 1.3153577 0.53588486 1.2576526 0.3603646 0.583629 -1.2291332 -1.9184005 -1.3756868 0.41194573 -0.7433117
6374 0.6679299 -3.0181184 1.7451254 -0.5465133 -0.15749237 -1.6307235 3.6292205 -3.537528 2.249194 -0.43288606 -2.9485774 -2.0279174 1.4816025 -0.81398773 -0.81445867 0.9855745 0.037205614 -0.5282212 0.80886966 2.4600477 -2.5272589 -1.3510035 0.40728772 1.3959006 0.7074697 -0.4498738 -0.33971107 0.4135818 0.8589539 -0.7383027 0.60825634 0.7031618
4452 -1.679486 -3.6103654 3.0438983 -0.1794831 1.2878541 -0.3015262 -0.7091922 -3.5822816 1.7563875 1.2826743 -0.5600136 -2.2216423 -1.5695679 0.835051 1.69182 0.43504962 -1.3200061 -1.1442355 -0.88632977 1.6633463 -1.3699925 -0.4685924 -1.0834981 -1.0965354 2.4144893 -2.3615046 0.2970879 -0.5638487 -0.22872178 -0.56220317 -0.4604051 -0.44132435
6572 -1.3814411 0.0173868 -1.5537251 1.499961 0.93713224 -0.116338745 -1.9666058 0.5254715 -2.145785 1.8763695 0.19025688 -1.8482863 0.051185012 -3.409402 0.7742918 1.1844702 -1.5162508 -1.8182901 0.9206234 1.2388022 -0.7484994 -0.6515393 -1.0359333 1.5186007 0.4646648 1.145352 0.7363416 -1.8122956 0.26124525 -0.8368808 0.83960575 -4.1426864
4694 -1.8480827 -3.3854842 0.91890645 -1.8205751 1.7104626 -1.5649462 -0.71237314 -0.8332876 0.43757886 3.0204046 0.12688668 1.2622216 3.1438723 -2.9071047 0.13892932 -0.28591487 -1.769656 -1.3536704 -0.71827465 1.4311004 -0.45832905 -1.0113717 -0.66344947 -0.84085125 -1.7069252 -1.6435211 -0.8687119 0.5613666 -0.14245667 -2.405517 0.09678577 -1.0843151
9054 -0.08028399 -1.6907338 1.4362253 0.76073676 -1.9932472 0.94761467 -0.36709467 -1.1262796 2.672109 4.5816894 -1.1538389 -2.469678 -0.3049276 -1.0581306 -0.9206124 -1.679424 -1.9265802 0.6199002 1.236786 -0.52397645 -0.88077563 1.0726342 0.3108675 1.7059515 -0.1743813 1.1299106 1.732675 -0.31022993 1.5836034 0.42260954 2.1459186 -2.199399
1733 -1.9101903 -0.55557185 1.4401636 -1.6324409 1.6361372 -3.5755246 1.5688481 -2.8051722 -0.031534486 0.7807095 -0.5790377 -1.3606071 0.8934947 0.33064234 -1.2778977 0.19119777 -2.324357 0.33394432 -0.81002545 1.5986543 -2.875795 -0.75951624 0.25649062 2.7416866 0.70269215 -1.111657 0.0017597744 -1.170426 0.312076 2.4600222 -0.14740159 0.01230576
9930 -0.33556613 -2.052477 0.14774403 -1.6159873 1.0883843 -1.5015436 -3.4207096 -1.3468679 0.7919634 2.4679947 4.2445736 0.29980555 1.5937021 -0.29760504 2.39201 0.29557702 -1.6584742 -0.5309552 1.8322886 2.1253028 0.29770973 0.48247248 -1.7464414 0.72692186 -0.14124118 0.8574476 -0.036024347 1.7772855 -0.10955314 -0.42740107 0.7067306 -0.14089756
9595 0.8755304 -0.20067124 -0.7086102 -1.5457836 -1.1162952 -0.38300627 -0.24391359 1.5322394 1.691493 2.5981297 -0.30412972 -1.6976227 -2.7214475 0.07270928 0.7092392 -0.51616824 0.102662325 -4.323683 0.6359677 0.32683086 -1.0741901 -0.84699076 -0.68506736 -0.7538841 1.7576758 -2.840658 -2.5321016 1.7534027 0.61739224 1.7956648 1.9560294 0.7916532
7419 0.320857 -1.1443597 -1.4074872 -0.42149967 0.08646313 2.842012 -0.9047863 -2.6429565 1.0966784 1.8004957 0.9093547 0.7645888 -1.758843 -1.0369854 -2.2671468 -0.4975349 -0.76449496 -1.3036978 2.2408297 1.6140496 -1.5265383 -0.51746964 0.88031304 -0.7627136 2.083947 -0.78602296 0.98914504 2.7912226 -1.4994619 -1.0553933 2.063605 -1.3712186
3561 0.11164729 2.317117 0.7056671 0.97458017 -0.7960366 -1.0898551 1.0108464 -1.2942387 -1.0316564 -0.23899387 -1.4246525 0.659986 2.7169373 -1.2511868 -0.66969794 0.11828971 -2.693491 -1.3035256 1.553257 2.198215 -1.6504017 -1.8825414 0.28629193 0.50746685 1.2118661 3.0351393 -0.659817 0.66153795 -1.123548 -0.76284564 2.8051088 0.8134603
6085 -2.6030707 -1.4266202 -1.3719647 -0.023643458 1.3030456 1.0698669 -1.4305394 0.61667114 -0.04208323 1.1760473 0.77839404 0.44722572 -1.4240946 -3.3368912 -1.7129854 -2.620468 -0.23277707 -1.3984878 0.07696696 2.2893195 -1.8105625 0.3162726 0.18845886 -1.220266 1.998926 -0.76104975 -1.1580622 -0.18373 0.8495784 2.4281216 2.5846405 -0.22647811
6281 2.2417905 -0.4175595 3.1157086 0.77950567 0.9575259 -2.3964343 0.3112283 -0.7920909 -0.9416863 3.0979266 -2.4821956 -2.7012339 -1.5098852 1.2992237 -0.119676545 0.33444542 -0.058690634 0.34338474 3.8629239 0.01181357 -0.29995623 -2.3919628 -0.7903013 -0.15847032 1.1574105 -0.2922094 -0.7151582 -0.23651414 0.4964865 0.17099053 0.62732995 1.2261778
549 -2.331547 0.32900128 -0.3510452 -0.43241265 1.9113716 -0.22288825 -1.5921277 0.6087214 -0.22038588 3.0421188 -0.7264059 -1.3603015 -2.5657005 1.2994543 -1.5279592 -0.87211275 -2.8080115 -0.6186491 3.5899458 1.2326955 1.2344652 -0.7644527 -0.11183256 1.1312968 -0.5351324 1.0897582 2.5578892 -0.4422555 0.4629779 -0.7280574 0.32303864 -1.8961482
2085 1.1527343 -1.4718956 0.22063772 -1.7840945 0.98453796 0.6011833 0.48832154 0.71416384 -0.6079083 1.6554744 1.5374103 1.5029083 0.6877259 -4.325075 -1.0649172 -0.87768936 0.07814398 -1.6813018 0.9818318 -0.5929236 0.35146976 -3.687115 -0.2768513 2.0299866 3.0326457 0.6403507 2.6905942 0.6148479 -1.6697329 -0.5509987 1.8476325 -1.0353454
6703 0.29709882 -0.77559835 0.66113424 -0.19520368 -0.37732512 0.013225835 -1.7853489 0.8665439 -0.97678155 0.257845 0.48624337 -1.4254296 1.3721708 -0.13153818 -1.4950154 -1.8388208 -4.456809 -1.9009768 0.42238608 0.8368378 -2.355192 -0.11847816 1.5548866 -1.1033591 2.93136 1.9801412 0.3980688 -0.6710941 -2.6152222 1.1035001 -0.27108514 2.1716895
2194 -1.6396276 -0.4225598 2.881604 -0.8536779 1.986555 0.09096852 2.2130406 0.016685896 -0.43716022 0.4361716 -0.50749063 -1.9367828 -0.2118327 -0.8980349 -1.4538993 -0.26858926 -0.19597615 -1.8482472 1.3810003 1.8596935 -0.080231525 -2.358228 -3.1576276 -2.129483 2.2853112 0.9363943 2.1862476 3.4594016 -0.93151945 -0.4661331 0.09720605 -1.7248452
765 -0.1269917 -0.45955276 1.6670039 -0.6241852 -1.3191167 -1.8232684 1.3324506 -0.53155184 -0.90626985 2.4775548 1.085625 -0.081555106 -1.071027 -0.01785612 -2.6029656 2.5079167 -2.515271 -1.6096785 -0.6456171 0.08345332 -0.85563976 -2.029463 -1.811203 -1.4305829 3.4898963 -0.8927725 0.29031605 -2.356061 -0.16047321 -1.273511 0.55483663 -2.3366966
5671 0.6819199 -0.104390375 -0.50115234 -1.3777064 0.6293086 0.13366374 -3.2549093 -1.275933 0.6087884 0.14109725 -0.64952344 -1.2623451 0.8740004 1.3408434 0.48368102 -0.04336107 -2.1429126 -4.393985 1.4391772 -0.96110964 -1.3038508 -0.7802887 0.35570228 1.324478 0.28759518 2.1352 -0.34622803 2.5280707 0.32142287 -0.21023083 1.4480932 0.4305751
7077 -0.5314791 -1.9269254 -2.016481 0.34018257 -3.299084 -0.8024702 -0.08631588 0.15579838 0.22189845 3.0634613 -0.34580478 -2.072002 0.012901761 1.0043741 0.5511094 -0.45856014 -0.57595474 -3.2251747 0.9675591 0.86959124 -0.2817141 -0.42655793 -2.191158 1.8836783 0.21430759 -0.8005141 -1.5439471 -0.79607373 0.34665823 0.17320457 3.1030736 -0.49196985
8885 0.4598292 -1.2759563 -1.6054276 -2.294762 0.07980277 0.059846867 -0.93796563 -2.3114178 -1.4222699 2.5824049 -1.0544703 -1.8059065 1.6528596 0.7503338 -0.9788842 -1.3162724 0.42507982 -0.13488956 0.2386533 1.7583824 -1.7761964 -0.041193493 1.2181946 0.9366588 0.5698156 0.7268959 1.110357 2.039658 -1.728132 -2.9001791 3.519816 -4.053504
4006 0.160181 -0.7512521 -0.92167383 0.51815635 -0.39941677 0.13212846 1.198118 -3.1025505 2.808749 0.43268123 3.0249693 -0.26413536 -1.602272 0.12764105 1.0923551 -2.0840359 -0.91973376 -2.7441342 -0.41186142 2.0580637 -0.6593833 -2.6669626 2.0899353 -1.3321066 0.9225974 0.96149087 -1.8873057 -0.46086028 -0.6948466 0.41714066 1.339751 0.059411917
8790 0.3060399 -1.8571013 0.6703838 -2.2158875 2.2506688 -2.3040576 -1.3013529 -0.24330835 0.66220057 2.9319098 1.4982023 -0.7741474 0.12725155 2.3479962 -1.0436764 -0.30744964 -0.5831602 -1.1922433 -1.392191 -0.5656622 -1.7208374 -2.0899737 0.9116409 -0.3083563 2.4523604 1.6404473 1.3445787 0.08626428 1.4327463 -0.1603411 1.0178009 2.782837
9500 -0.2761056 -1.6663492 0.863928 1.8650318 -0.86593604 0.6127476 2.0426297 0.70762473 -0.60978377 1.7959666 0.96522367 0.3895419 -1.9007822 1.5765781 -1.4334033 0.43659163 -0.8117374 -2.0266254 1.119769 2.5022388 -2.8093624 -2.787373 1.8499707 -0.32976982 -0.58601034 -0.13652164 -1.9268606 0.006388161 -0.6181553 1.0355599 -1.8669133 -0.3846069
2183 -1.4156204 -2.5573735 5.039026 -1.6703916 0.8834059 -1.0212275 -0.9637062 -2.1343808 2.1469193 1.1645052 -0.33445194 -2.5530918 -1.3145938 0.034107074 2.112267 -0.38396606 -2.0970504 -0.82901096 0.10690308 1.3705578 -0.5486001 0.99367094 0.6322326 -0.15391664 0.7876483 -1.7373594 -1.4046441 -0.00796455 -0.8895864 -1.0881298 1.0444864 0.2700383
6585 0.27832887 -2.5643654 0.025820851 -1.0794629 1.7677704 -1.909442 -3.3310502 -0.45330134 0.91767406 3.3139453 3.1842594 -0.06967124 1.3866881 0.6407771 3.0020952 -0.89878196 -1.7010719 0.1700108 2.475946 1.8975664 -0.032691453 0.118415356 -1.3539437 0.60663193 -0.23779632 0.4601819 -0.4145162 2.1031463 -0.012913969 -0.3584584 0.25683343 0.31868136
5784 -1.2497237 1.965832 1.3248225 -2.0874934 -1.9861958 -1.840907 -1.5955315 -0.11006397 1.75921 0.461443 0.19570003 -2.2700245 2.4009 -1.5984342 -1.4819003 -0.55370796 -0.49959388 -2.2539768 -1.4222401 2.5407593 -3.7695107 -0.8106803 1.2513711 0.4346741 -0.26476252 0.2889198 -1.0211338 0.31389976 0.5229288 -1.5581855 1.4381249 -1.2823029
6100 -1.77844 -0.7217459 0.84181255 1.012985 -0.9227971 0.35986477 -0.37590638 0.5955446 -0.74426734 2.9162924 0.85069764 -2.011318 1.394005 -1.2491857 3.0541534 0.6188405 -3.2429624 0.14881651 1.3260527 1.6490499 -0.99720615 -0.9370454 -1.2334195 -0.96548223 1.280274 0.5327054 1.5402706 -1.9888302 -1.3131119 2.3819735 -0.23952194 -2.0963984
3530 -0.09975784 2.0592256 -0.021743363 2.1071792 -0.33169958 0.46536204 -1.7179172 0.6538631 -2.0302663 3.6467316 1.2946578 -2.0082831 0.29473123 -0.77343935 0.0064978767 0.086324774 -2.3971133 0.5872504 2.9520211 1.987767 -1.7405725 0.45920467 0.49643427 -0.95289934 1.5717225 0.54186743 0.4964932 -0.9719981 -1.1101769 0.060962975 1.406184 -2.818667
9230 -1.0854188 -1.964524 2.616282 -2.0274575 -2.3773565 0.05043214 0.29563054 -1.338348 0.07739936 -0.37325314 1.9423729 -1.6554317 0.5275431 -0.57304966 -1.4787868 1.3092871 -2.8252025 -0.27234527 1.9652255 0.44743797 -0.81022424 -0.07580091 -1.9162188 -0.65421456 2.1128395 -2.1433334 -1.4793993 -0.3682648 2.8273642 -0.93955505 0.5619346 -0.33744448
5943 -2.4288552 -0.31823686 -0.37120754 -1.0089626 0.58945763 -1.1519885 0.72350085 -1.0122273 -2.1940632 0.107858755 -0.26279512 -0.72542095 0.21761347 -2.0510275 1.3310233 1.0844164 -1.3279122 -4.3792696 -0.5128022 1.3477058 -0.24131341 -1.2464134 1.2635788 1.0254694 2.4017937 -2.7550309 0.43938747 1.9726905 1.9003478 0.673191 0.5732731 1.3785768
4435 -1.6886744 -0.3525927 -0.71033186 -1.4865999 0.88950175 -2.7957444 -0.26060325 0.7049037 -0.5072998 4.0476046 1.0290843 1.0068368 0.2721044 -2.0738804 -1.8939339 1.8521875 -0.7690989 -2.4709954 1.5272524 0.56403714 -0.21530448 0.8848876 1.3751341 -0.1252153 1.4046685 -0.8680728 0.6208916 1.25237 -0.17849095 -1.9024416 0.55113333 0.08589614
9598 0.24289371 -0.9456643 1.7914248 -1.319465 -1.4090459 -2.091658 1.1553949 -0.71552104 -0.7043085 2.2377486 0.3406701 -0.556925 -0.7222861 -0.2794879 -2.9969146 1.9994383 -2.0317366 -1.4127312 -0.40041682 -0.3753168 -1.301548 -2.0986927 -1.693528 -0.96714985 3.5598302 -1.1184013 -0.05823603 -2.714107 0.13485178 -1.2477739 -0.122683145 -1.916952
8421 -1.0295107 -2.4723306 -0.19730921 -1.2593507 0.35962057 -1.172104 -0.5788046 0.39228413 -1.8474342 0.35538295 -0.96799254 0.39464194 -2.3423138 -0.6687656 2.991825 0.6427408 -0.69760615 -4.5985417 0.03339028 1.1414567 -1.4627333 -2.2348287 -1.337708 -0.43761057 2.8704386 -0.52493876 -0.8695007 -2.084394 0.0012043356 -0.40362698 1.0109713 0.8976978
8589 0.3982535 -1.3532015 1.9433441 0.332919 2.3937163 0.24775496 1.5958956 -1.0338502 0.28112483 1.4519653 -2.4605763 -1.2908541 -0.22396524 -3.2758822 -1.0889972 0.034518287 -0.55446637 -3.3004465 -0.15095589 1.2282817 -0.101646975 -2.0192537 -0.2596736 0.10426696 1.1821215 0.83197355 -0.7447391 0.8951888 0.8438187 2.5788512 -0.89552313 -1.9984128
4014 -0.9723762 -0.2946143 -1.4351249 -1.4958766 2.413545 -1.6975435 0.0037947574 0.88324666 0.5321269 0.34558517 -2.678114 0.16699563 -1.9237818 -0.051657833 1.2031024 0.61655957 -1.9825947 -2.7123997 2.7241693 1.7178873 -0.043257598 -1.9856033 -1.530899 -0.07486184 3.3332484 -1.5474058 -1.0799822 -0.47297817 -1.2756368 -0.18762681 1.5676578 -0.095384054
4830 0.68954057 -2.9648604 2.2820885 -3.3309157 -1.6738324 -0.36411 1.0678315 1.4519107 0.28827858 0.23326597 1.2231274 -1.3928683 -0.16980897 -1.9176705 1.3080416 0.25700933 -1.1954105 -2.172713 3.0988643 0.6540185 0.7706364 -1.0194033 0.8718345 1.9102417 1.0233755 -0.2518701 0.5313673 0.8166183 -2.5437794 0.031975586 -0.57971954 -0.16616748
8741 0.097437166 -1.4404149 0.18514098 -0.47006634 -0.017910868 -2.3790455 -0.7273268 -0.8505472 0.26706153 1.1674747 0.9306056 -1.6238883 2.494737 0.26769954 -0.7303514 -0.77526426 -0.54090923 -1.1370562 2.663146 0.10700616 0.35035273 -1.0490128 1.0658337 -1.5879053 2.3037734 -0.37437606 -0.295467 -4.150598 1.1487023 -0.5690329 2.6737583 0.50467944
5227 0.6000527 -0.08566235 -0.6216749 -1.6475953 0.9016924 0.00032248648 -3.3456118 -1.4141057 0.7838711 0.46797973 -0.93656653 -0.9863468 1.3031945 1.3347875 0.3473416 -0.111683324 -2.3463104 -4.68839 1.6035583 -0.9539804 -1.784655 -1.043622 0.86244076 1.4395496 0.2144584 2.5184093 -0.35689932 2.6371057 0.50401825 -0.08848757 1.3788342 0.20460829
7952 1.1697384 -1.8809981 -0.9589239 -1.5788817 -1.4473222 -0.017994348 -1.1075313 0.3498104 0.055295847 3.2229803 -0.046949364 0.32634544 0.62998605 -0.9512559 -2.1711664 1.4936782 -1.3644367 -0.87531286 -0.13638285 -0.53371835 -1.3980057 -1.4199 -2.0603538 0.1756076 1.8676128 1.2567905 -0.6996856 0.85454386 -0.8630431 2.9049013 3.1246545 -0.54678416
6818 1.2193043 -1.5988356 0.13484028 -2.0242777 2.9494698 -1.8835213 -0.1615057 -0.54683065 1.2019612 2.6200137 1.6471385 0.17362209 0.9381468 3.1097302 -2.1575882 -0.70589006 0.064557545 -1.2677435 0.24046423 -0.39116716 -1.7653862 -2.2241664 1.4939688 -0.9126035 2.6933272 1.1721158 0.3610297 -0.20636822 1.789864 -0.3713104 1.9316657 2.9079576
4148 -0.20164002 -2.5002043 -0.74129736 -1.515484 0.30340457 -2.1907578 -1.7988914 -0.2885368 0.08276757 4.049536 1.9146494 0.45005646 -1.9458555 0.2766275 -0.60256994 -1.8817459 -1.5506206 0.23809959 3.2240837 -0.24915254 -1.1581801 -1.8816699 -0.528638 2.0388045 -0.13675235 0.19432148 -1.9337193 0.52047306 0.17795098 2.498028 -0.46067256 2.0743625
2670 1.4594201 -3.1270561 -0.1137864 -0.38851196 1.1300151 -1.73061 -0.79919994 -0.35524878 -1.394546 1.3810811 -0.1703499 -0.014725835 -1.1908662 -2.843263 1.5695479 1.3570132 -0.3529769 -3.015849 -0.5349425 0.8790211 -1.5075533 -1.2696221 -1.2988007 -0.6300335 3.2210588 2.0241747 -0.88331026 -3.2038934 -0.2123049 0.19964689 0.9296571 1.6359624
4114 -0.004271013 -3.6273003 -1.0008985 -2.437954 -3.323038 0.15022738 -1.1795754 -1.2111621 0.5735041 0.54427993 -0.02179289 0.02062367 -3.1357868 -1.2313066 -0.48563093 0.041407738 -1.6025298 -0.49657977 1.2097831 2.155028 -0.5589949 -1.3690066 0.63504624 -0.23794743 -0.7410966 1.4086185 0.20693764 -2.1015754 -0.24212134 0.66344374 2.2488499 -0.6162187
4228 -2.8650281 -1.8903015 0.68105143 -0.99059105 1.3526584 2.0641015 -0.20952047 3.3094895 2.1279123 2.6464303 -0.93619084 -2.0670733 1.4139217 1.5724517 -0.52015805 0.5283448 -1.2035475 -2.021268 -0.31222385 -0.22546731 -2.6487691 -1.1756094 1.0211626 1.1077688 1.1643969 1.6071357 -0.55139935 0.23565117 -0.8444939 -0.47711205 0.05132943 0.185418
9817 0.39095333 0.44979194 -1.2610087 2.3576512 2.0341117 -0.6831238 -2.8831565 -0.69107324 -1.6344593 3.8292632 -0.5405062 -0.8209239 -0.9067964 -1.0244827 -2.3334892 -2.8364282 -0.8823887 -0.8265114 0.981864 1.9116547 -1.2069975 -2.5846999 0.44927198 0.31998944 2.0131361 -0.8851797 -0.20315379 -1.1513772 -0.18555453 -1.6335735 -0.5607745 -0.18610251
3268 0.21394597 -2.6264865 1.7360798 -2.68824 -0.6001454 -1.7601094 2.0193224 1.097663 -2.4815547 -0.4236404 1.8355526 -0.21739747 0.73413897 0.014974034 -0.10771026 1.3011619 -3.1278234 -3.0089917 1.714879 0.22461002 0.59344405 -0.98759824 1.7378005 1.0402774 1.2905213 0.43306676 0.47427747 -0.78918755 -2.0513902 -1.4839036 0.7525486 -1.1148746
9085 -0.98128444 -2.2997105 0.70115536 -0.8034162 1.7012618 0.06422054 1.0550985 3.7320476 0.4546332 2.4975798 -1.5686775 -1.2750005 0.2827133 2.3397493 -0.7831057 0.5949171 -0.3534172 -1.8431988 0.14134935 0.010880311 -2.3728056 -1.104314 2.063927 1.4281124 -0.39265388 0.49819526 0.14247113 -1.5622447 0.5482967 -0.6614857 0.3327676 -1.8927175
9725 0.01725867 -1.0376297 1.718147 -1.3982445 -1.6341444 -2.0913959 1.4346449 -0.92222816 -0.72613585 2.2813153 0.37772986 -0.5246079 -0.65315545 -0.26158938 -3.1108818 2.2030792 -2.4162526 -1.4547389 -0.3489143 -0.11293518 -1.1468475 -2.2773492 -1.5570843 -0.9056157 3.44382 -1.2401602 0.25281972 -2.794603 -0.10215062 -1.3973463 0.007987514 -1.859941
6116 -0.7579798 -3.0802498 2.0224767 -0.82478935 -1.1838546 0.71503305 0.09505063 -0.23400865 -1.1591774 1.4421767 1.420579 -2.7554886 1.0609846 -2.2871826 1.2820246 -0.87490845 0.6517783 -2.2080755 1.4110469 -0.49830934 -0.019844476 2.1385396 0.6873032 1.1700801 0.9946541 1.9644015 0.20699044 1.5470195 0.7270642 -0.056541517 3.2263892 -0.661238
1859 1.0472697 -2.5677004 -0.9480929 -3.0050137 -2.0692136 0.5423091 -0.8763016 -2.6418438 2.376906 2.3315349 3.1323419 0.84436685 2.0741684 -0.65048546 -0.46386582 1.4289725 0.5826085 -3.1924415 0.5556813 -0.38278088 0.5170612 -0.40471458 1.3643183 -1.2335272 1.2291741 1.6167097 0.53868514 -0.08981506 0.40433282 -0.22456902 1.2148268 -1.9625733
6591 0.17813665 -2.2043073 0.59000796 -2.711996 0.11173981 0.16624326 0.28730989 -2.8495488 0.86454844 3.5679915 0.7319183 -2.2975903 -0.6943074 -1.0015066 -1.1612927 -0.034969315 2.0019495 -0.12135795 -0.22504091 0.5372376 -1.0281003 -2.6554806 0.9822881 -3.047545 1.35523 0.38238832 -0.7715223 -1.8408277 -1.6266938 -1.7168808 -0.7983078 -1.1977133
1757 -1.8044946 0.040354993 1.2781053 -0.6240967 -0.45739958 -1.2311583 0.88953805 -2.5977166 1.5302286 2.2077649 0.25232726 -4.961394 1.8913906 -0.55632526 -1.3140017 0.2669054 -0.34486684 0.23817223 0.59369487 2.033946 1.5334712 -1.4593171 0.7777143 1.8581958 1.9260303 -1.7073464 -0.6077316 0.84550667 -1.3433905 1.2227458 -0.45591772 -0.93324333
7450 -0.7862972 0.8588008 0.7109879 1.1927556 -2.6891665 0.2550591 0.34897977 -1.5834526 1.5826887 -0.38299745 -1.9093941 0.44572967 1.9272863 -2.9398148 -0.5024627 -0.25781783 -2.4882476 -4.2462006 1.200889 2.2463777 -1.0052202 -1.132388 -1.5671546 -0.054721046 1.5952587 1.8810533 -1.4409201 -1.0532126 -0.54958475 -1.1194533 0.67135954 0.72749317
7170 -0.26941156 -0.46013469 0.30633038 -4.0170107 0.09536786 -0.31447428 1.0342809 -1.5259085 -0.25270486 1.3841829 -1.6722659 2.2693307 -0.31550887 0.22699651 0.7896643 0.6057891 -2.3921232 -2.2186222 2.1432076 3.7604196 0.09539246 -1.2029835 -0.58311063 1.052569 0.7318781 -2.6848152 -2.0172298 0.50690293 -2.1774492 -0.15055214 0.48579556 -0.49988326
2829 0.22593719 0.23257634 0.49925625 -4.5536137 0.14786653 -0.8037199 0.99146116 -1.5408597 0.16806051 0.7648398 -1.7788126 1.0287887 0.20262836 0.5781404 -0.1847299 -0.17781614 -1.8573114 -1.7948608 3.072668 3.996155 -0.14425464 -1.094406 -1.3245248 1.1651795 1.3117976 -1.9844445 -1.5815134 0.5512646 -2.6795707 0.09346467 0.11292528 -1.2002356
7946 -1.2327216 -0.5891922 -0.66985995 -1.1805502 1.0479652 -3.1226044 -0.3671316 1.1942779 -0.18222307 4.4277315 0.6259143 0.8417667 -0.2975117 -1.5761614 -1.0257418 1.3782151 -0.19002193 -2.37629 1.9062885 1.1333767 -0.056740705 0.78473747 1.0820647 -0.443185 0.9042245 -0.949296 0.270193 1.895015 -0.96088535 -2.4397893 0.76345384 0.9047737
7618 3.2241137 -1.2721937 0.8892935 -1.6235392 -1.635795 -2.239348 0.8963861 -0.3595292 -0.09944475 3.1062531 1.9817263 -0.29618233 -0.542782 -2.4692156 -0.49196154 -1.4275256 0.5971803 -0.11102826 2.0072525 2.059976 0.30005202 -0.5868963 1.1473417 2.6426992 1.2248745 1.1119862 -0.009920552 -0.19697651 1.1517315 0.38665545 0.1646332 -3.0916305
395 1.1919897 -1.3300706 1.3333766 -0.9901187 2.8398237 -2.3653207 -0.84430546 -1.1331362 -0.16514121 1.8881667 0.060472745 0.17414139 1.7057588 -2.7053251 -1.5980679 0.9294522 -0.078275874 -1.7368069 1.5833899 -0.23102525 -0.39318246 -0.8394217 -0.3155107 1.3415315 1.9254588 3.5864403 1.4095018 -1.4754336 -1.8116719 1.0040313 0.18800764 0.4599254
1332 1.0016602 0.1901353 0.8716471 -0.689893 2.0878398 -1.3781242 -0.2795671 1.3697456 1.9242955 2.3745964 -3.0837119 -1.1305928 -1.8114871 -2.833166 -0.2573565 -0.32626462 1.7012286 -3.354334 0.67725235 0.49040127 -2.1135771 -2.012503 -1.5604714 0.04017292 2.053893 -1.2652613 -0.602643 0.5572666 -0.85706127 1.269315 0.624389 -1.0318906
3698 -1.4505364 -1.0937049 -1.5500524 -1.8018582 -0.66424274 0.8235834 -1.4584863 0.32502508 0.7968864 2.1604407 -0.1214902 -0.35606658 -0.54007363 0.16365303 0.8538801 -1.4024286 -4.315432 -0.8657962 3.6334288 2.170857 0.36538962 -0.90548575 0.4051976 1.2311515 -1.4931448 2.5700939 2.1035938 1.469668 -0.7657193 0.72658074 -0.35690475 0.13592213
6607 -1.8557395 -1.6281081 0.9920373 0.013251981 3.1922238 -0.8025867 -0.2762627 0.4387743 -1.7531857 0.60308594 -0.008664716 1.037396 0.23312013 -2.7898853 1.2794493 -0.24236171 -2.9070392 -2.950209 -1.0385516 1.9599419 -0.27716213 -1.3287598 1.5423912 0.7823286 2.6817207 -2.728613 -0.82865876 -0.77620524 1.6911907 -0.19636326 0.31082663 0.8018684
7785 0.5684439 -2.6626227 0.040510226 0.050595958 -1.0930007 0.45884204 -2.6939623 -0.6868104 0.4635352 -0.4632331 0.5786415 -2.6925323 -0.9957042 0.6703771 1.7463409 -0.5123426 -2.402582 -4.986526 1.4586459 -0.66792923 -0.11245725 -0.5232652 -0.9774343 1.0455804 0.28609395 1.5345353 -0.28638119 0.9411712 -0.8102655 -0.6361496 2.852642 -0.11465616
7089 -0.49574086 1.063982 0.38547906 -0.6216337 -1.1840332 -2.8483417 0.76980627 -1.6999642 -0.45070842 2.1891851 -1.2384155 0.2523982 2.6497471 0.12070227 -0.41721678 -1.3208827 -3.0689473 0.031733353 0.85099614 1.9748924 -1.2140303 -1.3165209 1.4164376 0.17113723 0.89104795 2.8874583 -1.406165 0.30456182 -1.7415848 0.63926125 3.0486813 -0.0322402
830 0.52872497 -1.568348 -0.21299112 -3.2271252 -0.11154765 -0.6602499 0.76207465 -0.077955976 -0.9181689 2.2389748 -1.5184133 -1.3878324 2.7578313 -1.786343 -0.5043157 -2.4802616 0.052676074 -0.65219456 1.2354531 -1.6364104 -1.243739 -1.2818431 -1.1543539 0.83330476 -0.45981655 1.5377536 0.7896101 -0.1753849 -0.50438917 -2.0941699 2.133902 -3.4077265
9900 3.0448308 -1.1124167 2.2890017 -0.50983447 1.5409018 -1.8149672 -0.4151542 0.113122314 -1.0248959 3.749648 -2.3102176 -0.9530707 -0.9985537 0.8468094 -0.5396308 0.03563876 -0.07805076 -0.3277867 3.8755746 0.622949 -0.85206074 -1.897056 -0.53564477 -0.19301899 0.96984243 0.038036533 -0.95022786 0.1984269 1.4418216 0.41331643 0.7220351 1.407415
6204 -1.6690369 -2.0857272 -1.5720799 -0.23289481 -0.96338195 1.8087251 0.005710009 -1.822552 -2.0922284 0.71063894 -0.2798012 -2.861471 -1.8207468 2.4265501 -0.026350172 0.14073274 -2.2307992 -2.647351 0.647455 0.18778414 -2.6107142 2.606446 1.0375333 -1.2174377 3.6848063 0.98874605 -0.82375 -1.1603491 -0.70707387 0.007495487 -0.5299065 -0.9467248
9198 0.8274745 -1.6925787 -1.6142704 -1.154564 0.19611655 2.5125234 -1.2320874 -2.7071817 -0.56795716 0.8675607 0.68513757 0.24638252 -0.9999876 -0.5506723 -1.5093933 -0.8622946 -0.55737716 -0.14937615 0.28352705 1.3046961 -1.2291131 -0.6982635 1.1001931 -0.1837409 1.5978502 -0.88928914 1.0884458 3.2161949 -2.4775996 -1.5364158 3.3811598 -2.5702136
5928 1.1766958 -1.7699046 -0.99931467 -1.5209949 -1.6264083 0.075518645 -1.028136 0.29647857 0.15442215 3.2026687 -0.13935983 0.41226155 0.5202383 -0.861941 -2.2166939 1.4228071 -1.3767204 -0.82807124 -0.28774992 -0.6516405 -1.245324 -1.372626 -2.3030846 0.09556795 1.6341163 1.0038276 -0.6999089 1.0263487 -0.9307407 3.1392565 3.1969938 -0.5545831
7921 -1.5498428 -0.17461145 0.7375562 0.6102411 -2.5464408 0.85705334 -3.3987038 -0.6974653 1.6932163 0.21380381 -0.8050639 -0.26287878 1.9470487 -0.48977023 0.33115286 -1.6965239 -3.8570435 -3.963728 0.67796516 1.2346021 0.52008146 -1.0276651 0.44997782 -1.0927554 2.7994528 -0.7759525 1.4014591 -0.7238608 -0.20393847 0.28994572 0.7500285 0.32210916
6743 0.30022517 -2.2432008 2.030253 -1.8445969 -1.9938476 -1.0292935 -0.19003299 0.50347954 1.7363213 0.61338603 0.1915579 -1.2709336 -2.6593478 -1.4719193 0.21397857 0.9595753 -1.1500542 -1.3706412 -0.32231912 2.0955021 -0.6681608 -0.24452977 0.42999038 -1.0927033 -0.9743287 4.5594883 -0.0691872 0.44064406 1.0806493 -0.48126736 1.7744025 -0.4690389
6067 -1.2408279 0.52047884 1.2400275 -2.5756106 0.80532783 0.41784355 1.445083 -2.6104524 2.1409292 1.6168598 0.1829548 -2.9173312 2.2927637 -1.5820236 -2.0215356 0.23746666 -0.2873657 -0.4959297 -0.13687685 2.3091216 -0.17998923 -0.8407005 -0.75278664 2.525573 1.3263183 -1.8165222 -1.5884501 0.51141155 -0.47743562 0.885045 -0.67781085 -0.07701041
135 0.28789672 -1.0022614 1.5842905 -1.0484933 0.57267654 -0.58413875 -1.530447 -0.28525636 -1.9851205 2.8332384 0.9517052 -1.7762344 -1.4692234 0.34367004 0.07115312 0.27469105 -3.2364504 -1.7193596 -1.0534928 3.1157172 0.3076714 1.8192718 1.1188611 0.08108425 2.7406821 -0.20777039 1.0115689 -0.064160734 2.7398982 -3.3333738 -0.25346756 0.17229857
127 -0.2681632 0.06732356 -0.83591336 -1.189115 -1.9279063 -0.17675216 -0.120462336 1.254375 0.09711472 4.250911 -0.045929976 -0.8044407 0.00062897435 1.3651729 -0.68451405 -2.8278067 -1.0250779 -1.1694657 0.23541617 1.9901294 1.0152442 -0.43913415 -2.4338362 2.0230522 2.1025972 -0.19417241 0.022232024 -1.4173058 -0.2731788 0.4328971 1.7748809 -2.2056704
148 -0.4004137 -2.6775863 -0.07036403 1.0062158 0.21571065 -1.1486715 0.23848765 1.225808 -1.6709553 1.0894946 -0.905161 -0.91166914 0.64524317 -2.1890876 -2.497146 -0.94710225 -1.6287459 -2.2853568 1.4966264 3.3800464 1.6521722 -0.16468638 0.837132 -2.0157058 0.024577212 1.0561246 -1.4653245 -1.6144774 0.9504522 -0.8062186 1.7010727 -0.15466909
9025 -1.4538058 -0.20339294 1.227524 -0.87582856 1.2282588 -1.1934887 0.92311513 -0.25666988 -1.1999518 2.5178704 1.7414149 -0.2909611 0.73442346 -1.6417514 0.58276814 -0.08313677 1.0542016 0.61919206 3.7513213 3.5964482 -0.4454359 1.4483212 -0.42305258 1.063949 1.1163721 -0.26785117 -2.5262415 -1.1210752 0.7516113 2.8706956 -0.15704331 0.089920454
4779 -1.310578 -2.477274 1.5098627 -0.16930231 -1.2567375 -2.3398266 -1.6581342 -1.0036176 -1.3607444 0.77575153 -1.7077144 -1.5955385 -0.11538601 -1.982867 -2.0675385 0.8583274 0.54171705 -1.9216955 1.8180712 0.30948177 -2.2991989 -0.79427886 0.6475378 -0.75836605 -1.0076214 0.9947361 -0.60440624 1.945555 2.9167106 -1.4262468 0.1876134 -0.10020009
6404 -1.3082026 -1.2692655 0.8666744 -1.2901253 0.20724683 0.8282805 -0.40863565 0.16515589 -0.17188665 4.4505577 0.11680559 -1.0306342 0.46200308 0.27560517 0.053860754 0.14361794 -0.6429212 0.8085424 1.9438115 -0.5913987 0.7361916 -2.3678763 0.4937198 -0.9910913 1.4600196 2.4817388 -3.202782 -0.5525549 -0.37138578 -2.4956408 1.6531928 -1.124256
640 -1.8051693 -4.460345 4.312088 -1.2429956 -1.024503 0.96158445 -1.0005194 1.3686758 0.85904855 1.8709172 0.19099258 -0.255897 1.126603 0.7290746 -0.8768063 -0.13748102 0.3477776 -1.5475738 1.5780581 1.1329998 -1.440025 1.4470336 2.2220507 1.5244552 0.44783956 0.14066137 -2.9174085 -0.2641932 -1.6917071 -0.29703882 -0.29183778 1.0797263
5710 -2.7328393 -0.572056 0.50550365 0.5832849 -0.14729768 0.5515639 2.7848022 0.20881765 2.2079196 0.13469645 -0.8757081 -2.6864445 0.83036095 1.4599469 1.9667679 0.13854912 -1.8457931 -1.5765595 1.3922263 0.45895666 -4.5725756 -1.323065 0.5567951 0.8074664 1.0208988 1.5745976 1.8522992 -0.67329836 2.2780688 1.3502316 1.3994465 -0.46722215
5496 0.88888055 -0.37520728 0.8376887 0.38324478 1.8097568 -1.7750453 -1.0055732 1.2202986 -0.12798715 3.3763576 1.0139054 -0.2862857 0.15255587 -0.53289336 -0.34785303 1.7314647 -0.53440416 1.1116875 3.9174535 2.3475966 0.4592849 -0.13135052 -0.7268431 0.21407045 1.0193735 -0.3013556 -3.2116039 0.26895133 1.4201785 2.8880105 0.94454026 0.15241313
1954 1.3734366 -1.9327298 -0.54059714 -1.5288408 0.46109393 0.13269764 -1.4097345 -1.9607873 -1.2255864 1.4400463 0.60119784 -1.5581042 0.8858336 0.789753 -0.0412992 -1.2967733 -0.1404971 0.32538688 -0.48022392 2.466761 -1.3932711 0.24925525 1.4133179 0.92364156 0.37521034 -0.36700448 -0.42037493 2.8726919 -2.3101819 -1.8591616 3.88537 -3.30778
8218 -0.79149026 0.17345387 0.62275445 1.3317738 -1.408744 -2.3065586 -0.52897745 -2.4413579 -0.71539944 -0.5950879 -1.1365092 -0.87509096 0.7246036 -0.58425295 0.66642076 -1.9956766 0.19403867 -1.9015006 2.9608462 1.2461828 -3.79514 -1.7466701 2.8316607 1.1037779 1.1822493 -0.561149 -0.85601884 0.114452854 -0.0009023409 -0.39749593 0.15195416 -1.9131604
5592 0.8503426 -1.3430656 1.9910878 0.11304327 1.9603022 0.030563379 1.6881927 -0.45305747 0.591046 1.2637073 -2.4708846 -0.97361386 -0.5569125 -3.52024 -0.80020523 0.09385111 -0.58326536 -3.309431 0.101365566 1.2493556 0.3041668 -2.1981652 -0.5970351 0.42288327 0.9996192 0.3960568 -0.57283974 1.0026604 0.3725447 3.0262804 -1.0852633 -1.9237038
2632 0.10531563 -1.7719238 2.4728038 0.37466657 1.5796906 0.13726585 0.73451906 -1.3949021 0.4602215 0.23082933 -2.2129674 -0.60426056 -0.16206756 -2.9799368 -0.3440213 0.4989155 -2.5333514 -2.4738367 0.8908936 2.098838 0.122998185 -2.0033166 -1.2222098 -0.55227387 0.8422167 1.3916802 1.0658786 1.4617982 0.26796213 3.0129142 -2.309796 -1.5322834
3696 -0.4406083 -2.9911907 -0.7548605 -0.7988476 0.04378645 0.8858781 -1.875667 1.4525156 -1.2935251 1.62549 1.6358207 -1.533812 3.8898363 1.0181137 -1.8655616 -2.210235 -0.18419556 -2.2399945 2.1729338 1.8711848 -0.5298827 -1.4412163 0.73381895 0.35340512 -0.0863411 -0.5116534 -0.35095114 0.2505933 -3.4353075 -1.1918069 -1.4775356 -0.17178532
2886 -1.4560379 -2.047079 1.7944117 0.005157492 -0.96489805 -2.375445 -2.0685148 -1.2610333 -1.379014 0.5747288 -1.3812927 -1.0525814 0.19340998 -2.0357158 -2.3573189 0.42114368 0.88069236 -2.237691 2.4376156 0.17753531 -2.865662 -1.140398 0.84089667 -0.6403247 -0.7447333 0.5520309 -0.9711738 1.831026 2.975832 -1.0998373 0.11074562 0.13755612
1271 0.5301286 -1.8562039 -0.27422357 -0.7544501 0.7792419 1.2122408 1.001081 -1.2615725 1.3025628 0.15857033 1.6570295 0.6601448 2.0621805 2.2241077 -2.5093963 -2.3112726 -1.4837185 -1.4384354 0.14986324 1.8593686 -1.0384065 -2.3786597 1.7174062 0.024243306 2.002364 -0.15303402 -0.48878095 -0.05609705 -0.83822626 -0.5002636 4.0706706 0.7079703
8292 -0.071892 1.5079552 0.5986438 -2.2612062 -1.0389191 -0.7504592 -2.2481873 -0.7771676 1.6930683 1.3842989 0.3534622 -2.4010396 2.8148768 -1.1956258 -1.6031702 0.12651785 -0.30478883 -2.4052713 -1.5799068 2.8404305 -2.863504 0.34812143 0.12325661 0.9552708 0.95464283 -0.08109986 -0.13096859 -0.9148802 0.23014171 -1.452717 1.0620872 -1.1882131
6766 0.3724314 -0.5679357 0.24838 0.07505556 -1.0748353 0.37633654 -1.2538781 0.99797326 -0.118621066 -0.037574247 0.32831946 -1.3948737 1.4754579 0.41686273 -1.675082 -1.6172115 -4.5543475 -2.3086576 0.49159768 0.33271733 -2.1204245 -0.042524483 1.1165001 -1.6477857 2.7768273 1.2218035 0.8851643 -0.7423694 -2.3360949 1.0872717 -0.07621849 1.9054711
2578 -2.1066961 -0.17165782 1.4856418 -0.8266892 1.2693982 -1.4350103 1.4353672 -0.8578661 -1.2642691 2.7177117 1.44244 -0.9403971 0.79504764 -1.2739905 1.1325018 -1.0126336 1.0424033 0.4735925 3.3037047 3.2730625 -0.9151533 1.1158614 -0.42261183 1.556821 1.116062 -0.8439775 -1.71503 -1.1685067 0.4021449 2.8270013 -0.3816853 0.28719953
247 -2.0692647 -1.3095548 0.9626367 -0.9143698 1.5348083 -3.3942533 1.5515127 -1.5255442 0.10957538 0.39695153 -1.2193408 -0.71378475 0.31032702 0.3768867 -1.3936896 0.2750993 -2.6693647 0.1525272 -0.15026708 1.1915417 -3.6979933 -1.3775816 -0.063916095 2.6552947 1.1047304 -0.3931397 0.7861441 -1.3947462 0.67459315 2.102863 0.70569974 -0.144417
3140 -2.3378985 -0.89960426 2.1881404 -0.8969353 0.97616744 -1.0540613 -0.078034915 0.4399154 -1.2537006 2.208958 0.36573553 -0.2987005 0.62612957 2.5561569 -1.2386134 0.860095 -1.4803596 -1.3915999 -0.004768966 3.2459369 0.18867047 0.27945969 -1.2364426 -1.2400159 1.75558 -1.749652 -1.4359537 1.4124249 1.0765377 -0.11356511 3.0796769 1.1365002
4125 0.009490673 -2.388767 -0.7879106 0.64463073 -0.69904596 -1.337267 -0.69814146 -0.12440845 -0.61534053 1.6643584 0.9458988 -1.2567189 1.4375217 -1.0921886 -1.911976 -1.6689844 -0.5846725 -2.4179726 1.7503964 3.149152 0.27743092 -0.18379962 1.759688 0.007999151 -1.9243602 -0.3671954 -0.20991093 -1.3282021 -4.099813 0.4348243 0.4719842 0.6562605
4496 0.35683656 -1.4256032 0.2238882 0.04393558 0.46911454 -0.790011 0.31233302 1.6010801 1.6923052 0.73349214 -1.7374885 -0.28234455 0.13437678 -1.1218809 0.74635464 1.2192101 -0.65500003 -0.87088054 2.5863378 2.9522 -2.0544205 -2.3555434 -0.7071143 1.660064 1.9595013 0.27785963 1.8722004 3.3421452 -0.80469394 3.2115705 -1.2074007 -1.1066097
9216 -1.2232002 -0.29301903 -0.19748123 2.1013262 -0.3377615 0.068225525 -1.2427156 0.67856634 -1.7816269 2.1559412 0.9238171 -2.2238183 1.2553669 -2.787509 2.3927283 1.4286183 -2.3922346 -0.44671226 1.0939335 1.4363 -1.2416314 -0.88700706 -1.1022205 0.25386164 1.3425375 0.95277655 1.6690713 -1.7213821 -0.7436842 1.2282829 0.38960516 -4.13505
486 -2.954154 -2.2761226 1.1762524 1.2329602 -0.3580485 -0.76474565 0.10677494 -0.6197554 -2.7510355 1.9194059 -0.23051536 0.42877445 -1.3157072 1.8834156 -2.287374 0.36389354 -1.2493525 -2.8827503 3.127385 0.54514515 -0.0036510674 -0.23049572 0.24290332 0.90847194 1.4143096 1.5308353 1.9429353 -0.08461735 1.6525196 0.21096888 0.42325187 0.16095757
5375 -0.91136193 -0.72009546 2.6230037 0.33899438 0.22090374 0.65699977 -3.7818067 -0.5927392 2.094148 2.6528873 -2.266622 -0.9950675 0.393067 -0.5892665 1.1916251 -1.1960053 -1.2364715 -1.8708822 -0.2628103 2.2208354 -1.8224146 -0.8296144 1.5758802 -1.400498 -1.4469166 -0.7344307 1.3251528 0.8296316 -2.2598708 2.0552967 1.071334 -1.0224309
4028 -0.32751843 -1.1087986 0.55202353 -0.03479419 -0.017767671 -0.5937638 -0.4339104 -1.1015741 0.25830263 0.41299793 0.87633425 -2.0091715 3.100283 -0.30889195 -0.7137617 -0.34332085 -0.88468903 -1.2478447 2.0478554 1.1997082 0.4734158 -1.2320422 1.1674554 -0.6981765 2.0468366 -0.65221 -0.6184551 -4.2220063 0.39546266 -0.993107 3.1204615 -0.28477386
2133 -0.030583419 -0.7745543 0.845145 1.3155028 -2.435479 -1.4351405 1.9917582 1.865148 0.3284959 1.788065 1.4011085 -4.9205637 -0.6895554 -1.4694526 -0.95188373 -0.032366797 -3.1632643 -0.8450471 -0.987826 1.1093131 -0.23565519 -0.6298522 0.31078655 0.9322173 0.9480338 0.7319498 0.8577384 0.050287656 0.82200414 -0.009548137 0.87755936 -0.0932485
6898 1.2636912 -3.6304636 -0.3014091 -0.12094182 -0.0820214 -0.4142416 2.5186014 -2.4040813 2.313676 -0.0476298 -2.952665 -0.73851657 0.086681135 -0.3992282 -0.23317842 1.3734767 0.64036685 -1.6310256 1.5406884 1.8377677 -3.2046156 -0.52069706 -0.2909575 1.6530546 0.745919 0.07302051 -0.5247363 0.43128663 0.530126 -1.9198823 1.7106532 0.54273635
3699 -2.9804816 -1.1023964 -1.7743312 0.61160284 1.5601395 1.7760388 0.50534713 0.19903511 0.031662937 2.72662 0.18202342 0.23208936 -1.0338548 -1.9740351 -0.80057985 -2.903403 -0.08249435 -1.4553267 -0.6828778 1.483083 -2.2663288 0.13431002 1.3517175 -1.0772212 2.237641 -0.64070946 -1.8627003 -0.82081234 1.1903995 2.0019555 3.3659391 -0.42287704
4996 -0.016410954 0.052244984 1.1644688 -3.3238127 1.1256903 1.3397312 2.140279 -2.9468124 1.9626342 1.6835248 0.2749985 -0.87072796 1.7748256 -2.0491347 -1.8286092 0.7135122 -0.30595472 -1.2254521 -0.22191113 2.8388534 -1.2280438 -0.2666957 -0.85262877 2.5631762 0.6924648 -2.167403 -2.1964915 -0.081369825 -0.17164712 0.08493701 -0.4939961 -0.34051087
2414 1.5588142 -0.34591544 3.456602 1.3026689 0.7016078 -1.6696441 0.90124375 -1.5700307 -0.5314689 2.543823 -1.2044418 -3.9141216 -1.1846575 1.8880644 0.13861503 -0.4737147 -0.70678765 -0.69892615 2.8711245 0.043481566 0.41507998 -2.7256598 -0.51614577 -0.07035929 1.4503123 0.6451459 -0.96220225 -0.65136975 0.76659 0.09187997 0.5800396 2.6803532
2400 2.336296 -2.157253 0.950895 -1.2870271 -0.6447662 -1.0226127 -0.73564523 -0.28802696 0.97280717 2.216881 0.5041837 -0.76444656 -0.071861915 0.39869255 0.6420588 -1.0726005 -3.391101 -3.8661132 0.46403208 0.64298934 0.93331504 -1.7427644 -2.1229782 1.1487657 0.43919525 -0.98259336 -1.0354122 -2.5276988 -0.54483396 -1.0937556 -1.1645272 -1.5095133
2906 0.19632377 1.2445037 0.19515789 -2.2086577 -0.5717854 -0.3447106 -2.4385493 -0.62972045 1.5563565 1.2936103 0.4515982 -2.5231206 3.295971 -1.0587183 -1.4408054 0.3958382 -0.13732275 -2.305998 -1.2673295 2.6968746 -2.2527573 0.58652 -0.045921385 0.8626373 1.4628184 -0.30049616 0.38813448 -1.88203 0.17900102 -1.2766134 1.1878573 -0.7328583
5966 -0.5132279 -0.65042275 1.8347975 -1.4903114 0.5585328 0.5703738 0.27690887 -0.60236996 0.93784285 2.5745327 1.4227641 -1.8195931 0.7393624 -1.1023914 2.9746554 -1.0583904 0.31670037 0.39802864 3.4189603 3.2624989 -1.1737429 -1.2062333 -0.33433932 1.2256854 2.293384 -2.3782747 0.68900055 1.204072 -1.8964776 1.8752065 -1.3217357 -0.3506251
919 0.2522748 -2.5701377 1.5559336 -2.1267693 -2.3904266 -0.8243906 -0.7547507 0.044618256 1.4436818 0.65322846 0.19308035 -1.273796 -2.6342754 -1.3609172 0.22346611 0.89487785 -1.1485363 -1.2596745 -0.060805004 2.274513 -0.65506536 -0.122771315 0.13740024 -0.8845507 -0.75272995 4.5784497 0.0030577553 0.19285737 0.68949324 -0.17065196 1.8262136 -0.61900324
112 -0.6100879 1.1685618 -0.034887195 2.857666 -0.39984196 0.2687263 -1.2350503 0.7934178 -2.4131558 2.9979692 0.47695512 -1.7136884 0.17904742 -1.6693903 0.47267044 0.9819784 -2.370794 -0.11345936 2.389291 1.6561925 -1.5405208 0.5282772 0.044775825 -0.11516602 1.2880408 1.1457767 1.0104872 -1.1733503 -0.7978559 0.14683132 1.283742 -3.8831203
8977 -0.25329027 -2.0216675 -0.30178863 -1.130934 2.129273 1.4525257 -0.08498923 -0.97430104 0.4962499 2.2087994 0.89244205 -2.1450732 -0.85051286 1.3538158 1.5061368 -1.6759846 -1.3887895 -2.7448614 -0.48739907 0.25267655 -2.3089502 1.8826233 1.728258 -0.9771705 2.6370895 0.806733 -1.7458408 0.4597235 -1.5217535 2.4676914 1.8911254 2.0890908
5060 -2.7144372 -1.7194788 0.48261765 0.14915328 -0.14885116 0.17405316 0.46372548 0.27397913 -0.40237164 2.4777722 0.75540996 -1.8409493 0.8827274 -1.5627466 2.9880702 0.3780089 -2.9414005 -0.3569618 0.68953097 1.4247712 -0.3727334 -1.8126009 -1.5749673 -0.2712695 1.1893494 0.3679753 2.0263093 -1.5333952 -0.7966894 2.8338835 0.008169015 -1.332877
2780 3.5841544 -1.1899718 1.3928283 -1.6764277 -1.4469653 -2.5039923 1.0062177 -0.30160436 0.28732634 2.7057564 2.2073054 0.057622217 -0.83719575 -2.2279973 -0.2594675 -1.4483646 0.43505514 -0.056359086 1.4131644 2.3694966 0.38105035 -0.43334693 1.3738642 2.7166524 1.168087 0.4677384 -0.3193864 -0.0025572516 1.0368831 0.51199806 0.43627053 -2.9026167
6870 1.5718273 -1.9202982 2.1004667 -1.4030708 1.2557557 -1.6983764 -1.6592522 -0.7786595 -1.491202 2.8494618 -0.18594803 -1.1099305 -0.86577517 -0.35668188 0.47173712 -1.4946288 0.10285043 -0.97653097 0.7183303 1.820818 -2.8122902 -0.052573998 1.1322242 0.7046066 0.9118535 1.6467338 1.4752837 -0.23443182 1.8300772 -2.1564522 0.39090702 3.1134906
3844 -2.3113997 -1.0467274 0.93516046 0.48109907 -0.93364537 0.1579173 -0.2683366 0.33836627 -0.7223813 2.921575 0.72565883 -2.008311 1.1658132 -1.3714117 3.3814127 0.3777534 -3.7560887 -0.2062467 1.6131965 1.5920771 -0.95521706 -1.4734012 -1.5641571 -0.7395312 1.0991402 0.8333181 1.5753429 -1.7320845 -0.7915412 2.2487497 -0.40756273 -1.821918
3687 -3.0323837 -1.6108793 0.8293825 -0.039032225 -0.14680825 0.26680517 0.508902 0.17597859 -0.25361988 2.7502072 0.4553627 -1.9237535 0.7315686 -1.5199467 2.7312188 -0.014180092 -2.9432805 -0.21202546 0.9450605 1.486409 -0.42443156 -1.6568096 -1.5494077 -0.62632656 1.159643 0.42411312 1.5787262 -1.6223617 -0.8054452 3.1227021 -0.030118896 -0.9503787
4826 0.49505663 -0.69532007 0.27752417 -0.16481023 1.2292713 -1.2438189 0.3180569 0.21010081 -0.041230436 2.602351 1.7157992 0.6444561 -0.7826313 0.2303582 -3.1698377 -0.06357236 -0.59627116 -2.7355018 -0.17655319 -1.0328921 -2.2631114 0.09429793 -0.85745263 -1.4142393 3.8727925 1.2575264 -0.5467144 0.2137642 1.1059235 -0.51401806 -0.38746318 -2.0814562
9434 0.30521372 -1.5500987 1.7846812 0.5594298 2.438488 0.17046914 1.3694504 -0.9976521 0.4116709 1.003841 -2.486744 -1.0266073 0.119732305 -3.16803 -0.92094135 0.40574545 -0.83294153 -2.7715063 0.1527576 1.2055504 0.017212063 -1.9363792 -0.274218 0.4122199 1.1380719 1.2085407 -0.31807926 1.1701555 0.6631159 2.986556 -1.304238 -1.9570894
6070 -1.2718025 -0.93347937 1.1781343 -1.6703173 -0.8082454 0.7772755 -1.0574967 -0.9477422 -0.112760894 3.9052913 0.46261367 -1.3673348 -0.28465357 -0.048574176 0.859134 0.23317084 0.24090675 1.0487002 1.713676 -0.5264404 0.2632362 -2.7737966 0.105897576 -0.7886503 2.2673454 1.68802 -3.3928719 -1.0953995 -0.14490035 -2.4471798 -0.06781755 -1.5488378
921 2.3804784 -1.9221009 1.1028109 -1.4000067 -0.61189705 -0.6855871 -0.42791185 -0.13960099 1.1695939 1.9909221 0.27979624 -0.5902052 -0.16233748 -0.15906906 0.69871217 -1.6629534 -3.3158474 -3.9519193 0.114385195 0.5723886 1.4420705 -1.8154794 -2.5350068 0.96625847 0.119470924 -1.254164 -1.2377709 -2.2031076 -0.6042628 -0.8354205 -1.4593987 -1.6241193
4185 -0.35555163 -0.2402597 3.1557674 1.480422 0.41324285 -2.257822 0.104293704 -0.17675765 -1.2323626 2.35058 -1.0140914 -2.8882895 -2.5410511 0.4906035 -0.10967179 0.5931458 -0.8061347 1.0653883 2.2780957 1.5797695 -2.368842 -2.6092489 -0.3007368 0.44564188 1.2020478 1.0829558 -0.839415 -0.8287817 -0.6504255 -0.96372783 2.1718652 1.5356618
9734 -0.8223027 -2.9735594 1.250854 -0.18716162 -1.3017747 1.1916255 0.4236681 -0.64511716 -0.14192057 1.5686749 1.0172431 -2.353281 1.2348771 -2.0608578 1.0443465 -1.3527129 0.3890268 -1.6257275 0.70218104 -0.9269805 0.12502219 2.3662655 0.36406547 1.2848645 0.9530318 1.2281003 1.5138944 0.90073216 1.2119756 -0.035403755 3.4691446 -0.76914954
5240 -0.082496196 -0.34935984 0.17347288 -2.2703187 0.10708364 -2.13091 0.18703899 2.6158984 1.7607505 1.1410582 -1.186383 -1.8597189 -1.1642588 -1.3226182 0.85937893 -1.4507946 0.8399841 -2.149075 2.7606378 2.8685925 -1.5048456 -1.3058906 1.6109923 0.08245266 -0.19109511 -2.4286892 -0.54892576 1.2410244 -0.097234204 1.1828413 0.08058109 -0.54993826
6618 -0.991039 -0.27639586 2.1370285 0.58413565 -1.7312747 -2.440469 2.048078 -2.7019727 0.74685997 1.4894074 -0.8540369 -4.1354403 0.9716672 0.5180701 1.0494655 -0.5998431 -3.0282037 0.1617697 0.6639043 1.6719694 1.3409581 -1.2738149 1.192151 0.4713546 1.8286214 -0.616802 0.35097218 -0.38727647 -0.19393776 0.39243588 -1.0661584 -0.19544776
1958 -0.5466124 0.16992866 2.7988808 -0.5026078 -0.28327176 -1.2512246 -0.70553285 -0.3588722 -2.1671362 2.2973814 -0.26874933 -1.5347515 -3.2337084 -0.53952193 -0.0536928 1.4461488 -0.5244386 0.4509236 1.9081578 1.4530175 -3.6102188 -0.98959386 1.0074245 1.3220583 0.9172675 0.3435595 -0.2606991 -0.685662 0.52957475 -3.5807598 1.5953158 1.4526712
8023 -0.9723841 -1.1572738 1.1899545 -2.1477418 -0.64120775 0.3156613 -0.7483435 -1.7228494 0.03424758 3.8840284 0.64533085 -1.4154488 -0.54482836 -0.1354522 0.6156683 0.4962363 0.7638979 0.75610304 1.1401767 -0.30649507 -0.22876492 -2.3951247 0.2199092 -1.1845053 1.812254 1.135846 -2.880348 -1.2102289 -0.5061349 -2.2644215 0.05795234 -1.6955222
6142 0.4058553 -1.768286 -0.53207093 -2.675071 -0.5914453 -1.3298348 2.1218965 -3.0030553 1.3950664 3.8249884 0.17260152 -0.86737204 0.41621128 -2.3192713 -2.2659712 -1.2230624 0.05267706 0.0076578353 -0.40266383 0.27593395 -1.857418 0.9068639 1.2387841 -2.42506 0.8861117 0.12171583 -0.5266338 -1.0142742 -0.46679556 0.71708506 -1.0843934 -1.5470272
1268 -0.7130594 -0.2871802 2.4155903 0.6217621 -1.799807 -2.5447907 1.8168457 -2.690324 0.8525499 1.7082044 -1.0099438 -4.278025 0.80839497 0.6272572 1.1233172 -0.40339246 -3.1187131 -0.027166618 1.1238477 1.5768017 1.1427587 -1.5773181 1.1409531 0.33880582 1.960242 -0.66543067 0.43340194 -0.24641491 -0.23610398 0.11972943 -1.045307 -0.05423216
2428 3.4024458 -0.6367508 1.7877954 -1.8110992 -0.678881 -2.9374838 0.6338791 -0.6317122 1.0867084 1.4577357 2.2826357 0.17968139 -0.90917164 -1.8975482 -0.9294783 -1.177326 0.6583436 -0.39760038 0.36470315 3.1684506 0.9048832 -0.5316564 1.5989594 2.0442982 1.4302076 0.33009934 -0.47814596 -0.03398804 0.85809916 0.86215633 0.44267434 -2.4479675
8059 -0.7463998 0.21241155 -1.1617618 -0.06382002 1.2844912 0.7567869 0.3685788 -1.2744569 -2.186546 0.73981285 -1.072623 -1.8160998 1.7759802 -2.6894095 0.8589743 -0.70709383 -2.401118 -4.66992 0.9899415 0.9383932 -1.5132943 -0.3504117 -0.3297738 0.9474409 0.038819063 0.53589433 0.7805552 3.380471 0.9495996 -0.65417236 0.36876228 0.2821125
6069 -2.3451889 0.97685784 0.33165467 -2.5460823 -0.19671948 -2.296819 -0.52072674 2.3346334 1.1208206 0.29119498 2.5925603 -2.8115027 1.1948974 -1.9081492 -1.3703902 -0.5781335 -1.4096681 -0.7099176 -1.3262812 1.0846055 -3.1264846 -2.7502513 0.1965175 0.034972277 0.16310506 1.0489882 -0.12430307 -0.12062211 -0.28840742 -1.2721231 1.8483435 -0.39189377
9118 0.13154209 1.0063851 0.6176268 -0.5667238 0.77252877 0.27353805 1.804029 -0.48251894 0.7513207 2.505098 0.55636775 0.15926756 -1.9757223 -1.3174459 -0.044505797 1.415126 -3.603816 -2.6447442 3.2675624 0.14982243 1.9376822 -1.492758 0.73336756 1.5286704 -1.5937824 3.8522284 -1.2805134 1.0737623 1.7697355 1.4098594 0.8961024 -0.7619516
9238 1.5787687 -1.5570269 2.0337956 0.62447715 -0.4536196 1.498812 -2.120325 0.4376015 0.111963265 2.186796 -1.008758 -0.6311114 1.6131926 0.47191998 -0.23191993 1.7647579 -1.8689946 0.057175506 1.9408802 2.6304147 -0.21798384 -2.1277056 3.6460762 -0.5695331 -1.6459719 -0.9794102 -1.4457846 -0.6239367 -0.0652007 0.300359 1.9953746 -1.7160177
8886 -0.23292579 0.1811539 2.0035355 -1.3058062 -1.2943355 -1.4881401 -2.8717034 0.09727976 0.5329822 0.03795045 0.66435945 -1.2757818 1.7222786 -1.7811476 -3.667154 -1.3648975 0.10537995 -2.0459409 -0.2629557 2.139065 -2.8534198 -1.4267579 0.058889687 1.5767094 -1.2096442 0.4690614 -0.1662227 1.1141323 2.865049 -0.903767 1.1843469 0.7928841
5099 -0.16302864 -0.5281198 0.116341524 1.2122486 0.064523034 0.8777027 1.1560116 -0.05324162 -1.2640457 4.7171865 -0.11235065 -2.0132122 0.71724933 -0.44593328 -0.15776536 0.20550779 -0.5377129 -0.37360445 0.34942695 1.6772879 -1.7029269 2.1890516 1.771808 -1.473313 2.7817464 -0.6081888 -0.085772544 -2.2646413 -2.541933 2.512015 1.3486347 -0.8602524
364 0.947962 -3.0922375 0.96896213 -0.66524935 2.427538 2.743017 -0.7996288 0.18422966 -1.8796824 1.1314605 1.7737198 1.5120506 -0.2250572 -2.1502244 0.8826418 -0.9614564 -1.4430116 -2.631437 -0.90273815 1.5981792 -0.5944941 -2.5389748 0.9497075 0.933869 0.90373296 -0.5362276 0.06044874 -0.46303797 1.8357071 -0.60629594 0.40352908 -0.7401541
4005 -0.7336354 -2.8954499 2.075378 -0.47722107 -1.1340599 0.9533782 -0.2611717 -0.17910875 -0.29349375 1.5132495 1.196153 -2.191353 0.74725384 -2.7035391 0.9705806 -1.1356351 0.43354347 -1.8865962 1.5680535 -0.6208341 -0.13779898 2.5627317 1.2467543 1.5638212 0.76664454 1.2011365 0.49663192 1.0813633 1.0580677 -0.17415299 3.6709208 -0.33179384
7584 1.6016667 -1.4634386 0.5051862 -1.7411087 0.98422754 -1.9287647 -0.73418987 -1.6463094 0.46150428 3.0972314 1.1445335 0.44547397 0.86560595 -1.6680446 -1.1064769 1.7853953 -1.0716227 -0.45180553 -0.043713823 1.0677198 -1.8528619 1.5949302 -0.5332591 1.0665119 2.6918888 2.3350003 0.3381931 -1.3412714 -1.6962765 1.6062101 1.2446905 2.096691
8544 -1.2599401 -3.5643718 0.9325991 -2.0757966 2.1143346 -0.9950648 -1.2344614 -1.2284482 0.704245 2.5561934 0.46074125 0.9346987 3.3409173 -1.7755865 0.13357493 -0.7943157 -1.4865896 -1.6929177 0.11461141 1.6856523 -0.38902387 -1.1066735 -1.5266964 -0.38584378 -1.6990072 -1.2999504 -0.6110384 0.76972246 -0.40198344 -2.181485 0.18811814 -0.9775596
574 -1.418667 -0.32107863 0.4663257 -2.90162 0.92965776 0.27373883 -1.3512673 -0.24714442 -1.795374 1.2590953 1.2840924 -1.3715965 -1.9479285 -0.2071386 0.21166132 1.8995303 -0.7702252 -0.27900383 0.8649064 0.021900486 -3.4268887 -1.256977 1.4355981 1.6366082 2.372506 -0.3032859 1.3040121 -1.5042955 0.88672197 -3.065789 0.9132544 0.17915492
5477 -0.4356534 1.6198015 1.6648679 1.0647383 -1.31494 -1.7096807 0.6439308 -0.93097824 -0.7897991 0.33272728 -1.0415037 1.283106 2.254515 -0.6276974 -1.2109487 -0.21225756 -2.660559 -1.3912802 1.445153 2.629931 -1.4185641 -2.4185786 0.57159054 0.63774455 1.5589875 2.6980867 -0.38679868 0.15376069 -0.77835315 -0.6442171 3.0225942 0.5089838
2581 0.52564156 -0.35484552 1.3810261 -1.0602213 -0.73072416 -2.0082576 1.1462914 -0.282526 -0.846593 2.3532486 0.4862626 -0.23436262 -0.99594903 0.086807735 -2.9616728 1.9772209 -1.8518363 -1.5683774 -0.7098322 -0.46557468 -0.99676585 -1.956341 -1.3695039 -1.1547625 3.7119293 -0.73333985 0.18411691 -2.4082422 -0.11026974 -1.2355187 -0.032750905 -2.418921
7242 0.36163855 -2.9872673 0.0728682 -0.021379583 -0.99666965 0.3291167 -2.536659 -0.5916908 0.52493954 -0.3639346 0.7247438 -2.510742 -1.054274 0.5256582 1.6519085 -0.33755332 -2.2470503 -5.092464 1.4388652 -0.5421041 -0.16583766 -0.7010844 -0.82291573 0.96492994 0.47168487 1.4034176 -0.24695301 0.76689136 -0.6267418 -0.46192044 2.8383625 -0.24744783
6817 -0.49591932 -1.5997494 0.4927048 0.80835557 0.15118378 -0.008061839 -1.4181494 1.5956997 1.1268533 1.4453095 3.6557221 -2.3078513 -0.019259464 -0.42344743 -2.712207 -1.4938017 -2.1683648 -0.23821567 -1.0443236 0.93652004 -1.3436589 -2.6714056 -1.110027 2.237427 0.13111451 1.2345523 0.7017241 -0.46642706 1.0686573 0.6900844 2.2654517 1.2958962
3034 -0.11257274 -0.6908844 0.74051136 1.3076462 -2.38843 -1.6675118 2.0716996 1.7657417 0.16492489 1.8752164 1.2734269 -5.235627 -0.5850235 -1.2648857 -0.96566886 0.036279906 -3.1863506 -0.8239684 -0.9218813 0.8181637 -0.28988013 -0.83735096 0.255567 0.8909007 0.98542905 0.58817804 0.71191406 0.10362651 0.96872437 -0.30459383 0.79709166 -0.20969452
5394 -0.70477325 -0.8206302 1.7742915 0.36746335 0.8673012 0.33304656 0.38102287 -1.0846976 0.42226964 0.65650195 -1.2139972 -1.2015895 0.4301617 -0.70682997 -0.4463951 1.3586837 -2.5269046 -1.0626848 1.7818817 2.3663416 -0.321959 -2.3144598 -2.227692 -1.3633934 1.6837865 1.7869047 2.5189745 2.82021 -0.6919654 2.1396015 -1.6386335 -1.6942494
5583 1.2509465 -0.16947144 0.48583174 -1.1855575 0.6333705 0.28741327 -0.04797132 0.44531855 1.5346891 3.5473542 -1.9225721 -0.1235101 0.03194613 -2.0315728 -1.4662738 -2.274405 -1.5352021 -2.4447904 -1.573051 0.7952128 -0.514849 -1.9337993 -3.1225457 -0.32568222 1.1487048 0.08817084 -1.1258037 0.39271098 0.16605753 1.3990327 0.38369852 -1.739218
7445 -1.6348042 0.7265077 0.19644082 -0.58392584 1.8375802 -0.12315075 -2.6436684 0.47489405 -0.13866493 3.8355365 -0.18221042 -1.9646014 -2.0534976 1.2587626 -1.8050052 -1.5194184 -1.9116477 0.07547973 3.6176558 1.4498147 0.8822519 -1.3159431 0.18293214 0.6060163 -0.15538225 0.32595775 2.086225 -0.6866439 0.06382443 -0.6214579 -0.16870987 -2.016371
1367 -0.7209765 1.7274225 0.5359051 -1.7420965 -2.4258785 1.0279421 -0.10063499 1.7456831 -0.20484652 2.9074562 2.6784039 -2.6249106 1.2663852 0.3322537 0.48985016 1.0920101 -1.4061934 -2.5827546 1.2468742 0.29287222 0.52785593 -1.6428119 2.9863253 1.201039 0.837233 -0.48466596 0.085819215 -0.48937455 0.24306563 -2.5230353 0.30660796 -2.500777
5406 -1.5425558 -1.0163461 -0.42114666 0.50503933 -0.24035646 -0.27290973 1.3327898 -2.304071 -2.9921327 2.0678136 0.38686222 -1.7313848 -1.833902 0.73463655 -0.5438262 -0.38350934 -2.0668623 -1.4819545 1.5966069 -0.5071864 -1.7926233 2.468161 1.6822752 -1.2653114 2.0432618 0.6435253 2.0361183 -1.0582036 -0.9299201 0.054276947 1.1380997 -0.4174247
4197 -1.986573 -0.6659828 0.42664307 -1.8096558 1.74155 -3.1391072 1.2444336 -2.069839 -0.082718566 0.6441494 -0.21700454 -0.3918397 0.61069393 0.30870074 -1.5086 0.0408636 -2.4942424 0.41733676 -0.43793494 1.066715 -2.9819458 -1.098308 0.114289306 2.9672055 0.960482 -0.62387687 -0.101399295 -0.86474985 0.69677985 2.5822635 0.20912176 0.22526227
8387 -0.10855744 -1.4223633 0.34031835 -0.38012078 0.52099115 0.39938945 -0.02164669 -1.1731485 0.48069692 -0.09193272 1.0940689 -1.1687299 3.712362 0.84246224 -1.5210469 -1.1562235 -0.9572375 -1.2008446 1.4873931 1.6719664 0.02317571 -1.6231809 1.556132 -0.38985395 2.0625772 -0.64743954 -0.6228618 -3.4403849 0.108808994 -1.0829773 4.0883236 -0.04626147
6736 -0.9150604 -1.4250083 -2.8365574 1.4706867 0.42725793 1.3212571 0.12855598 -0.8483984 -0.32118195 2.3124993 1.2426308 -0.7409905 0.8063951 -1.7329879 -2.107885 -3.3395765 -1.7456167 -1.4099056 0.9533247 0.5395091 -0.27712962 -2.0089703 2.5496743 1.5635321 1.9948177 -0.20580202 -0.92635816 -1.5540005 -1.0031831 -2.5507302 -0.82993907 0.19256683
3290 0.07686258 -2.5233834 -0.15189418 -1.6780181 1.4082811 -1.6637169 -3.3837206 -1.6038929 1.1734602 2.663708 3.139962 0.31824052 1.6510969 -0.008599539 2.478064 -0.43093887 -1.4545377 -0.5111191 2.042717 1.7538859 -0.10400784 0.10673201 -1.434614 0.53614956 -0.5098725 0.3975007 0.31152943 1.822412 -0.1947916 -0.48972195 0.38704634 -0.3311588
7289 0.25328732 -1.5672464 -2.1279957 1.0257953 1.6195421 1.5085967 0.03943326 0.8871735 -1.3446798 1.860274 -0.4263954 -1.5548424 1.4322445 -1.6758819 -3.5056684 -0.7928548 -2.5135732 -1.7407675 1.2226725 1.6031716 0.65321165 -1.303518 0.9360434 0.41337556 1.383778 1.4012882 -0.90459794 -0.77136993 -0.18974921 0.4415999 1.1993859 2.1256998
6442 -2.698696 -1.5505987 0.5513322 -1.199513 1.9614646 1.560214 -0.003346315 3.9163952 1.7363777 2.7026143 -0.86764544 -1.4167699 0.8414518 1.4084306 -1.0743207 0.5991153 -1.4217378 -1.9832908 -0.01131045 -0.59509563 -2.5074093 -1.4306855 1.381594 0.98998135 0.7851861 1.9797231 -1.0889771 0.07262369 -1.2900928 -1.0255597 -0.21089476 -0.37556562
7776 -2.58967 -2.7773862 -0.40318134 -1.6090841 -0.1239903 0.3611319 0.71300834 0.8932303 -2.3928103 0.82062894 0.81785065 -1.1663653 -0.119372815 0.9162979 0.6230376 -1.7732905 -0.057453506 -1.2955713 2.8955734 -0.8367205 0.24288931 -2.690159 0.23286395 2.216224 3.071215 1.5076457 -0.38308793 0.054685853 2.314774 1.902618 -0.082422115 1.1041299
1100 -0.77133125 -2.6982036 -0.8176201 -0.7136551 0.717903 2.2605782 -0.61122936 -0.39043146 0.2359133 1.6613282 -0.14610155 -2.8102822 -1.4189696 3.0046031 0.32695732 0.20093447 -2.336781 -1.9269296 0.39169192 0.45211405 -2.4957387 2.073313 1.5073962 -0.89484125 2.9835298 1.1243426 -1.9750822 0.31905177 -2.3095315 1.0333986 0.029739399 -0.7938215
5619 -0.3072814 -1.3709829 0.5192567 0.026628029 -0.12877217 -1.430716 -0.60937107 -0.98695564 0.043731898 0.77913195 0.8963792 -2.0746565 2.930915 -0.30352065 -0.6588425 -0.47215697 -0.8539383 -1.2124134 2.5918422 0.73194635 0.7585492 -1.161726 1.0941875 -1.1047511 2.2275264 -0.64808244 -0.50092554 -4.5765967 0.6922128 -0.9120571 2.9991674 -0.1108159
3266 1.1665763 -1.314251 -0.8501039 -0.31888455 0.54026145 -1.8228328 -1.3905065 1.0971185 0.62712365 1.3899796 -2.2418892 -1.1442803 -1.0992684 -2.6713622 0.0061221924 2.0378263 1.0065777 -2.8722043 0.8809899 -0.010109763 -2.294608 -1.3334596 -2.1437712 -1.1414165 2.9415724 0.21287896 -0.21467662 -1.1045591 -0.8413001 0.3053701 2.0628076 0.44865724
4346 -1.5781955 -0.27681625 -0.2991987 -1.1992092 1.0521379 -2.8249822 -0.15167339 1.2143811 -0.632811 4.1974826 0.5780812 0.85118645 -0.0008845706 -1.4459337 -1.8503711 1.6015736 -0.28438854 -2.538262 1.7507073 1.0764672 -0.07001363 0.81474465 1.373844 -0.29882506 1.4855218 -1.032556 0.20772223 1.5845385 -0.2778498 -1.8773258 0.9984834 0.7923438
8342 0.80597395 -2.3849134 0.6095098 -2.5523922 1.3083375 -2.6995525 -1.9249668 -0.38823116 -0.5835996 3.0327408 0.92490363 -0.9025873 -0.35142556 1.7018982 -0.4570942 -0.9962831 -1.0382502 -1.7867552 -1.2742789 -0.36503753 -1.5452794 -0.21486335 1.5674881 -0.7159612 2.9203815 0.9082944 2.5692832 -0.099635266 1.6328068 -0.86331457 0.33984825 2.1212807
6033 -1.5711886 -3.4835916 0.9395249 -1.9830747 1.836319 -0.9087618 -0.9346554 -1.1057647 0.49300715 2.5919874 0.34439716 0.97289836 3.386305 -2.2061214 -0.051043395 -0.77632624 -1.552278 -1.483306 -0.4671368 1.4146123 -0.4845542 -1.282496 -1.2859932 -0.46425006 -1.7110287 -1.3890238 -0.8316283 0.4904852 -0.029861437 -1.9983245 0.14033756 -1.1831088
5946 0.39910764 2.4570508 1.1534315 -2.6424394 0.5731722 0.7470578 0.2160744 -2.381721 -0.3965956 2.013434 1.6654533 -0.1737295 -1.011131 -0.6634203 0.49265048 0.6901727 -3.13786 -2.3505085 1.9589413 1.7087646 -0.10995339 -1.9630446 0.79828537 0.09775091 -0.5855157 2.5269883 -1.688355 -1.0309876 1.3061599 1.0784163 0.63844424 0.41618586
7061 -1.3616139 -1.2793229 1.1228408 0.12767598 0.558684 -0.42630056 -2.297353 -2.648093 -0.08209325 0.28745306 -0.25822356 -2.9889238 0.12404221 -2.7708752 -0.9278061 -0.91294664 -1.870675 0.99814904 -0.6046614 2.69242 -1.4656802 1.2036492 1.4535964 0.37600064 2.6345336 0.6943085 -0.40647355 -1.2799966 -0.5472481 -1.2290217 2.5700755 0.72265625
8676 1.5671208 -2.8070886 -1.2579684 -3.1877685 -0.41524604 1.6887807 -0.675771 -0.45243526 -2.0908482 -0.09269386 0.9694279 -1.3136305 1.1479164 -0.15291478 -0.63182473 -1.5403972 0.43550026 -1.926917 1.4591639 -0.19226183 -1.8670368 -2.8472795 -0.13553561 0.9386044 3.757843 1.4287361 -0.83553606 2.1231585 1.4591606 -0.7052183 -1.1190559 0.28522205
7791 -0.4371629 -4.158074 2.650233 -0.08752333 -1.4855616 0.95436734 0.17603533 -2.6822069 1.9714074 2.8764715 -0.63003606 -2.6060846 1.0274068 -0.5390542 0.8515116 -1.18786 -1.132734 -0.8553595 -0.84570175 -0.7978098 -0.54935324 0.6431601 -1.0395112 1.5228913 -0.005279575 0.504938 1.2824612 -0.2651716 0.32847604 0.17495601 1.5822065 -2.475993
5429 -1.5342816 -0.81600267 -0.74594456 -1.359728 -0.50574243 -1.8629082 0.7114679 -2.2135756 -1.0353438 1.752357 -1.4325815 -3.0910769 0.81725085 0.7855455 -1.874276 0.36451006 1.9866524 -1.6179664 -0.62057304 0.6713945 -1.2469444 -0.98516804 1.1780813 0.6643088 1.2223653 0.5164551 0.97229606 1.934205 0.66385543 -2.4242225 1.968617 -3.3203888
